-0.02238681	-1.2940096	-0.38902584	0.23620139	0.6141556	-0.80088603	0.041646563	-0.19912982	0.30275172	0.8122305	0.17271687	-0.2354541	-0.54840326	-0.006241291	-1.9711659	-0.011072147
-0.3464007	-1.0880567	0.69837403	0.29197755	0.40271243	-0.54406106	-0.002590455	-0.036114503	0.3886771	0.1408098	-0.6334712	0.35878608	0.35708475	-0.37650964	-0.8626449	0.028104207
-0.588935	-0.45746595	-0.6278901	-0.31459928	0.61119723	-0.44796464	-0.45965537	-0.18216361	-0.04240829	0.07707313	-0.19418526	-0.18963934	0.4048122	0.12160341	-0.081564836	-0.2945698
0.22761951	-0.037437797	-0.21359062	0.26177353	-0.101824485	-0.16889809	0.15797304	-0.22474404	0.087768115	0.028379936	0.13437562	-0.10009013	-0.12306878	0.04205016	-0.31350085	0.022604367
0.086920194	-0.45593575	0.16735974	-0.7939203	0.082246885	-0.056806717	-0.21050522	0.10828684	0.21479699	-0.18389551	0.58470064	-0.51469207	-0.38811225	0.45110765	0.10695641	-0.28123397
-1.67474	0.11853762	-1.7573665	-0.4032489	1.6315304	-0.46896043	-0.85114473	-0.10943217	-1.0319188	0.18851274	-0.62477666	-0.096601024	0.99898344	-0.02273929	0.25338903	-0.38151452
-0.22123782	-0.31399173	0.113206886	-0.3331339	0.35364422	-0.066935554	-0.12447983	0.21367289	-0.08500385	0.18376014	-0.0043408168	0.03067653	-0.012336455	0.0017148107	-0.20623867	-0.08301433
0.41917887	0.4926131	-0.4925432	-0.46432886	-0.15193263	0.4601499	0.13594072	0.35792443	-0.56008005	0.31742463	0.8911245	-0.33339432	-0.6927349	0.29041037	0.029868469	0.12218026
0.006210392	0.3707808	-0.555681	0.23242061	0.002586641	0.10758168	0.12729487	0.0045899386	-0.2770268	0.27723995	0.10989455	-0.032744646	-0.09146968	-0.057351027	-0.2393535	0.1920709
-0.19000939	1.065268	-0.7387196	1.3760663	0.00499521	0.24877048	0.82386607	-0.17362106	-0.65130615	0.95467067	-0.5028448	0.79569	0.14702432	-0.82582796	-1.0457556	1.0315305
-0.19611065	-0.08536396	-0.1590274	0.24118592	0.17203993	-0.14593185	0.06099939	-0.127447	-0.010798874	0.25932962	-0.27763247	0.17588034	0.2442891	-0.14436094	-0.41570306	0.07730536
-0.046653003	-0.35480773	0.4044534	-0.39763203	0.28260413	0.06622484	-0.016716532	0.39783213	-0.08767245	0.21084206	0.066340186	0.1130456	-0.26446617	-0.07919043	-0.28280702	0.096768245
1.1115261	0.100521505	0.39304295	-0.46683744	-0.8804946	0.4543048	0.53000796	0.22843793	0.22566149	-0.085289046	1.4510105	-0.6848443	-1.1366868	0.61413515	-0.0839371	0.12665032
0.27205902	-0.29832542	0.29419822	0.4268035	-0.3598625	-0.1634574	0.3861648	-0.22204083	0.25360873	-0.045293115	0.057729483	0.040288124	-0.095250875	0.0030485978	-0.42384997	0.14309396
0.4927447	-1.099277	1.0669632	0.10498977	-0.3768966	-0.5114787	0.08055215	-0.40087625	0.84636486	-0.6472179	0.32631037	-0.3875087	-0.15630774	0.4623864	-0.10356123	-0.3656366
0.3625829	-0.6073213	0.8131163	-0.23884061	-0.2545874	-0.05696113	0.19875008	0.06548479	0.41391915	-0.20246284	0.34159982	-0.18247725	-0.4115936	0.17747468	-0.23542576	-0.12821144
-1.2115992	-0.18672006	-1.8556418	-0.14686356	0.9417709	-1.1308427	-0.9167379	-1.407104	0.042589154	-0.42637473	-0.48954234	-0.44340125	1.3991424	0.43778118	0.63300145	-0.7228995
0.7818872	0.038917813	0.29604796	0.95844364	-0.78363156	-0.010015049	0.72312224	-0.50534874	0.37337324	-0.054630578	0.25320482	0.05095086	-0.28384706	-0.03378333	-0.55493695	0.3610502
-0.0142586045	-0.51129466	0.114838935	0.08395286	0.0010623009	-0.3974853	-0.22041145	-0.28963986	0.369721	-0.26848155	-0.061947584	-0.13412704	0.16248016	0.18163742	-0.018587956	-0.21483208
0.02195093	-0.2915281	0.3152298	-0.2689882	0.069127	0.04685139	0.05642732	0.20768946	0.07519496	0.015349088	0.123898804	-0.019150464	-0.26468572	0.03731076	-0.22108676	-0.046788774
0.31385946	-0.17397992	-0.21028262	0.29856923	-0.3776937	-0.33636862	0.03175068	-0.5707089	0.40133697	-0.23202592	0.17661665	-0.3085243	0.04396052	0.27473924	0.031960715	-0.1902304
-0.9044619	-0.3406694	-0.8245165	-0.85611355	1.046375	-0.277066	-0.7016807	0.21986984	-0.38725466	0.010101355	0.024453506	-0.4019279	0.25037298	0.28973317	0.36647162	-0.5304415
-0.46401235	0.0058735088	-0.27043864	0.25342527	0.5280886	-0.12957661	-0.03898093	0.066351354	-0.29538602	0.3022153	-0.49355403	0.39148304	0.26153064	-0.40915897	-0.41186938	0.22130722
-0.3901476	-0.29884627	1.0381887	-0.5165253	0.7454739	0.18126282	0.2534714	0.832902	-0.18625152	0.51618296	-0.13361219	0.38489252	-0.18820104	-0.3207933	-0.7001038	0.35235515
0.037454892	-0.12711358	0.3284219	-0.2818038	0.05104358	0.21980211	0.07621999	0.38991147	-0.11801081	0.21134019	0.15948693	0.028761838	-0.26808354	-0.11145152	-0.24692638	0.099029
0.28119624	-0.55366457	0.41473585	-0.070552975	-0.16012952	-0.23092623	-0.036110714	-0.21751216	0.4607595	-0.31483406	0.23585916	-0.2510893	-0.14031096	0.3116887	-0.009319125	-0.29024887
0.08150923	0.10929014	-0.40550905	-0.033655506	0.062474504	-0.1232939	-0.019655969	-0.19321051	-0.10523752	0.07542251	0.20296295	-0.18407537	-0.056648336	0.06601427	0.009862301	-0.04921018
0.084922075	-0.2283766	0.017872743	-0.41545963	0.012365278	-0.07238185	-0.07162567	0.03431872	0.14044352	-0.14404322	0.37557578	-0.26303005	-0.22100754	0.288968	-0.018944403	-0.18625414
-1.7855034	-0.32187444	2.1200628	-1.9344335	2.0946643	1.3334218	0.5045933	2.321266	-1.552074	1.8730493	-1.2382352	1.8088417	-0.7294441	-1.9481484	-2.0142097	1.460722
-0.05410963	-0.46410415	0.2857783	-0.21987425	0.14794008	-0.23383534	-0.13544333	0.07413954	0.24709359	-0.124440864	0.054009914	-0.084813096	-0.059364613	0.1318785	-0.017561873	-0.1687454
0.13948259	0.09616432	-0.05516202	-0.040381525	-0.04294703	0.0747822	0.04787148	0.06677991	-0.20318596	0.16602929	0.22347306	0.024353314	-0.24792448	-0.026940878	-0.16794778	0.11151102
-0.4221902	-0.09208329	1.603182	-1.6400977	0.99109787	1.2122395	0.78630817	1.8684738	-1.2642112	1.5414786	-0.18675837	1.2700055	-0.98753095	-1.2970259	-1.6322798	1.0990586
1.4949172	-0.14855547	1.2486187	0.6687911	-1.3747185	0.39547467	1.2664919	-0.22246553	0.6194756	-0.28020138	1.4191844	-0.6329786	-1.3158543	0.63727844	-0.42250797	0.29430863
0.03496122	0.100764915	-0.29959798	-0.15841018	0.03083262	0.11019795	-0.052978963	0.12918836	-0.16451024	0.11597751	0.23165172	-0.090616494	-0.2599589	0.009374244	-0.057238553	0.0066024945
0.25687027	-0.09204634	0.4232229	-0.33581233	-0.16809721	0.30099174	0.3049591	0.41388306	-0.105620064	0.19366217	0.3761908	0.0047610034	-0.5554792	0.009745719	-0.27984276	0.20289166
-0.44748548	0.19081298	-0.74829257	0.08467627	0.44712356	-0.20382653	-0.31460997	-0.2289853	-0.30416474	0.09766324	-0.25371516	-0.0021320782	0.3752914	-0.06618851	0.0135719525	-0.05981328
-1.510954	-1.0495113	-1.4146843	-1.2955732	1.3506304	-1.2394464	-1.4431555	-1.1403911	0.899738	-1.030296	0.22465883	-1.1641849	1.4807492	1.2187637	1.0913588	-1.2723764
0.21723787	-0.14420907	-0.0640363	0.06398438	-0.24544065	-0.0675423	0.121991515	-0.17855313	0.12744015	-0.14943913	0.2691839	-0.19473639	-0.09105623	0.12768993	-0.04829343	-0.026045108
-0.2869472	-0.38246122	0.53474724	-1.0106639	0.55371094	0.27063808	-0.07311012	0.73750883	-0.28180143	0.20506573	0.21409906	-0.07589528	-0.43056437	-0.05531445	-0.07674912	0.031931207
0.5426025	-0.45922887	0.38574326	0.48793828	-0.6180403	-0.40536273	0.13858663	-0.6960297	0.60898995	-0.41804478	0.3614497	-0.3747415	-0.052334435	0.41665775	-0.024404248	-0.26350206
0.3613223	-0.1429249	0.2257495	0.093866706	-0.3105533	0.0133409975	0.22666852	-0.05462333	0.2663516	-0.101772286	0.371055	-0.19573553	-0.31731683	0.18412736	-0.14196876	-0.006500866
-0.028123362	-0.50662327	0.27610433	-0.27780396	0.087689444	-0.2834771	-0.1782551	-0.02023333	0.30355245	-0.21041408	0.04815707	-0.17102198	-0.07542896	0.19497073	0.026662499	-0.26555887
0.46342754	-0.4788838	0.45525074	0.0144684445	-0.5343586	-0.21322522	0.17851089	-0.2877647	0.5586853	-0.35484642	0.4140622	-0.3224477	-0.13304359	0.37078905	-0.067931406	-0.1879409
0.22890377	-0.25985122	0.07287124	0.61794025	-0.33117735	-0.441112	0.12949643	-0.5034659	0.42692852	-0.2102589	-0.09020617	-0.011437082	0.16041301	0.06820107	-0.2056917	-0.012018705
0.23564187	-0.29457387	0.3378952	0.06563752	-0.2283947	-0.0987701	0.093698	-0.16878979	0.23270063	-0.11554661	0.15072908	-0.12392693	-0.11828788	0.10908699	-0.15369478	-0.08471588
0.74599475	0.27287653	0.05985493	0.16835107	-0.6648876	0.33012962	0.5451623	0.036968563	0.027840942	0.0842686	0.707855	-0.288304	-0.6661953	0.17094605	-0.17837518	0.31331223
0.5347931	-0.28994468	0.42369667	0.2279749	-0.5293489	-0.104433276	0.21761066	-0.3020059	0.5170655	-0.2728617	0.34567356	-0.34395522	-0.25136787	0.3230633	-0.008352151	-0.16864076
-0.47236314	0.7728866	-1.4700952	1.1843095	0.09529517	-0.5484589	0.039923772	-1.114403	-0.40533102	0.41735193	-0.616709	0.50012857	0.6727407	-0.40506727	-0.38910672	0.25639626
-0.45768923	1.1599108	-1.2481016	1.5099531	0.14832802	-0.17084375	0.41262862	-0.7328043	-0.57334495	0.66511315	-0.7681957	0.7622336	0.6452767	-0.7338183	-0.60700613	0.7208308
-0.6638587	0.3887986	-0.94648254	0.6657134	0.4853191	-0.34070858	-0.11469755	-0.4865797	-0.38182974	0.27550775	-0.7237733	0.4624017	0.73095816	-0.48177382	-0.2623384	0.1493666
-0.09045728	-0.22149432	-0.53229403	-0.41407502	0.03624318	-0.313792	-0.47915018	-0.38814917	0.18923515	-0.31227812	0.37931517	-0.5901263	0.061203215	0.59099066	0.45414427	-0.5030092
-0.104315	-0.4828032	0.21477652	-0.8443987	0.23000903	-0.09989254	-0.30759278	0.16135159	0.09382812	-0.17284615	0.4261419	-0.3351553	-0.21356787	0.3766656	0.24326026	-0.3165567
0.69125724	-0.4735895	0.60107243	0.36832815	-0.70782787	-0.16138472	0.4144737	-0.45447817	0.63092613	-0.39726663	0.4710251	-0.39292863	-0.40667835	0.4154446	-0.16796008	-0.11395267
0.3779394	-0.30335987	0.66695887	0.039541498	-0.2896642	0.16931471	0.3534159	0.12935631	0.21112669	-0.09847296	0.32744238	-0.11972841	-0.50274223	0.021578157	-0.36126852	0.15641397
-1.1181006	-0.94102365	-1.0919249	-1.289569	1.1033524	-0.9440319	-1.2038904	-0.6240156	0.54887044	-0.7919458	0.32309982	-1.0558648	0.92336667	1.1435524	0.9858383	-1.0439316
0.1491229	-0.043094628	-0.25576302	0.47237176	-0.225843	-0.3271428	0.12017599	-0.5824555	0.16141297	-0.099621005	-0.015721144	0.0058240006	0.1369432	-0.057606854	-0.17057754	0.044153485
-0.36374468	0.009187607	-0.52795184	-0.018209921	0.3513846	-0.36001986	-0.43495032	-0.21919122	-0.063761905	-0.11361891	-0.21444781	-0.03283596	0.36138955	-0.017398167	0.25433257	-0.28551826
-0.23036873	0.45384932	-0.3196077	0.7952789	0.10882335	0.18032777	0.550513	-0.0515824	-0.45026416	0.7161684	-0.41251644	0.6501287	0.12236975	-0.6744113	-0.9398256	0.74733275
-1.3601459	-0.8552763	-1.3293362	-1.0113888	1.1999041	-1.1152616	-1.3161237	-1.0173486	0.52568954	-0.82221	-0.18589716	-0.89979523	1.2899641	0.9075874	0.9058939	-1.0652254
0.060478356	0.20653929	-0.42645258	0.4595089	-0.08427574	-0.23477527	0.029438075	-0.443247	0.111059666	-0.011091891	-0.07547743	0.045613915	0.11574116	-0.014759349	0.011913219	-0.039290823
0.8633796	-1.2439247	1.3525947	0.11249642	-0.8102917	-0.92225397	0.07073812	-0.7284218	1.1043292	-0.92270344	0.8084392	-0.80351096	-0.42149955	0.8384917	0.15031597	-0.79618555
-1.234693	-0.09721234	1.2015991	-1.3052349	1.5850912	1.081191	0.23147747	1.8204885	-1.3429389	1.39862	-0.9483504	1.3059094	-0.5916723	-1.4462981	-1.2281331	0.89728713
1.1959397	0.75646496	0.25791335	1.0962234	-1.2809842	0.6678235	1.0887307	-0.044260886	0.10807954	0.23965947	1.0979029	-0.2624652	-0.8874597	0.25263453	-0.49278033	0.63863575
0.28091052	-0.8418564	1.2405447	-0.17128557	-0.0959459	-0.37284958	0.0043256176	-0.025849644	0.5272847	-0.3410914	0.1858006	-0.17607456	-0.17225339	0.23612545	-0.27823722	-0.31586123
0.32444787	-0.6855579	0.6364466	-0.23136784	-0.3062096	-0.24326539	-0.09160329	-0.16797213	0.5642947	-0.39723608	0.47137916	-0.44425836	-0.2657882	0.37313265	0.104225695	-0.27943772
0.58401513	-1.0997381	0.49202412	0.02384832	-0.6324939	-1.1160297	-0.23212333	-1.2198359	1.1147922	-1.0132773	0.68389004	-0.9724275	0.05163154	0.9587651	0.33576226	-0.8344995
0.31472126	-0.12284804	0.2815154	-0.011022675	-0.24819681	0.093677595	0.26278016	0.12051268	0.08230441	0.03359706	0.2596882	-0.03520702	-0.3083733	0.05926127	-0.25104153	0.16410787
-0.40539387	1.5283716	-1.7357763	2.0281823	-0.01699443	-0.44384587	0.46408823	-1.366727	-0.69405675	0.7233249	-0.96276635	0.94579273	0.84527016	-0.9548931	-0.5806203	0.81733173
-0.232238	0.4172765	-0.15719451	-0.12355357	0.45297405	0.4608128	0.2781511	0.7259628	-0.83152944	0.8280631	-0.07251409	0.41421926	-0.34162763	-0.53726727	-0.61294925	0.5081869
-0.020412369	-0.046613462	-0.46216452	0.5284392	-0.034186345	-0.38018066	-0.036237083	-0.62821484	0.17920619	-0.08276861	-0.24995695	0.018555073	0.3594808	0.014755376	-0.16356903	-0.020604197
-0.34204984	-0.17856365	-0.77726597	-0.048752453	0.29106143	-0.57742226	-0.5096632	-0.62828606	0.07429806	-0.2787555	-0.122572236	-0.2951899	0.5594515	0.32452375	0.2953174	-0.43270245
0.62245005	-0.5840681	1.331993	-0.21903147	-0.44563642	0.070077635	0.5689816	0.10807337	0.44314882	-0.17983954	0.59849125	-0.15586632	-0.8401036	0.19234356	-0.45184577	0.04932529
0.12587903	0.03144112	-0.11210053	0.2854901	-0.13683048	-0.16048686	0.15845609	-0.25270724	0.09505781	0.02483466	0.028421514	0.0027592194	0.08701525	-0.04626551	-0.1277671	0.058342446
0.2210363	-0.2876622	0.7012548	-0.2648523	-0.032396976	0.15027452	0.26760727	0.32487288	0.07670018	0.040305924	0.24266873	0.0018579465	-0.48277122	0.044578325	-0.24733062	0.07530032
-0.9673897	-0.42921835	-0.36001268	-0.7041407	0.8739354	-0.31123507	-0.5489349	0.11165441	-0.13496426	-0.13719976	-0.27701357	-0.21401079	0.4554472	0.1524824	0.21096219	-0.3894024
0.31096584	-0.14649273	0.10701432	0.5553247	-0.2749863	-0.18556982	0.21153116	-0.35981283	0.21027052	-0.054432753	0.033325374	-0.00027270222	-0.09899285	0.03488233	-0.25207	0.038278632
-0.10766238	0.22411239	-0.2922905	0.07343032	0.15896972	0.042640187	0.08170084	0.07746071	-0.3184405	0.24037182	-0.06425888	0.091791265	-0.0007676777	-0.20156643	-0.17596748	0.17566922
0.49948522	0.5542959	-0.39443788	-0.377676	-0.38881043	0.2777856	0.15050946	0.0014533005	-0.23800756	0.084214516	0.9083084	-0.62309307	-0.55279034	0.51199305	0.22777565	0.058337357
-0.9558606	-0.9775496	-0.73783815	-1.1312407	0.8224101	-0.97525465	-1.1860607	-0.70356923	0.83052427	-0.8788895	0.4433055	-0.97014534	0.94672006	1.0032365	0.8544562	-1.0730234
0.32227173	-0.49871674	0.44027373	-0.14610009	-0.32319182	-0.12107142	0.017453484	-0.17379208	0.49166837	-0.29270107	0.3848973	-0.29028088	-0.28314796	0.3425149	-0.011235719	-0.26775166
0.5386584	-0.6166113	0.9574146	0.055631123	-0.40321255	-0.11635107	0.2723588	-0.16590774	0.5729441	-0.34573781	0.39856088	-0.23321445	-0.37940863	0.28533763	-0.17846458	-0.15078084
-1.211658	-0.4936579	-1.1137439	-0.40765056	1.0704126	-0.94485086	-0.92273027	-0.80291843	0.18664512	-0.41462895	-0.50308675	-0.3575761	1.2736892	0.42410296	0.49339867	-0.6808549
-0.6422863	0.20670909	-0.82598233	0.7702069	0.4692487	-0.651976	-0.2616359	-0.67097354	-0.13467063	0.13587965	-0.8784238	0.53146374	0.8639524	-0.495106	-0.29052922	0.04345835
0.1244341	-0.21961404	0.099215925	0.21798734	-0.16038695	-0.21238464	-0.0387694	-0.27248237	0.21917115	-0.1512706	-0.037987083	-0.0024081296	0.1264644	0.069831476	0.014600206	-0.07304795
-0.24574015	0.54850394	-0.8653133	0.5274606	0.15855221	-0.09143911	-0.018261185	-0.2670751	-0.4518784	0.32527348	-0.30021474	0.25939038	0.1699073	-0.27099872	-0.23171544	0.15631287
-0.14750078	0.09423404	-0.49846238	0.38102975	0.014115473	-0.346548	-0.03126205	-0.5220764	0.02778566	-0.022234716	-0.26645926	0.11560847	0.3748204	-0.09954712	-0.12294318	0.014603834
1.6995074	1.310607	0.5424924	0.0880337	-1.5657586	1.2767041	1.4445924	0.8651283	-0.9312722	1.0221305	1.7074953	-0.39319822	-1.5459173	0.10475232	-0.878148	1.1462487
-0.1692239	-0.7808664	0.46743357	-0.9901065	0.2616152	-0.27601483	-0.45206854	0.25914457	0.45697016	-0.363584	0.47988012	-0.6136636	-0.006294259	0.5995255	0.38109815	-0.61558527
0.5950378	0.27635342	-0.13457792	0.57350785	-0.6843351	0.13397583	0.505105	-0.32334104	0.13011347	0.067744374	0.24985194	-0.07617581	-0.24192965	0.017305851	-0.28619438	0.31330886
-0.8943947	0.4181924	-1.0455625	0.6657764	0.7189611	-0.4914386	-0.260261	-0.48679367	-0.4523078	0.2844754	-0.8653769	0.4820269	0.9084878	-0.5041693	-0.21298286	0.13280675
0.25941133	0.309988	-0.17097956	-0.24524982	-0.14065242	0.2991892	0.16801444	0.29191732	-0.23240118	0.17428726	0.5106561	-0.12975956	-0.38706875	0.15033004	-0.009781225	0.12046615
1.4639685	-0.139781	1.0188863	0.6103648	-1.3937254	0.4283914	1.2884204	-0.17795695	0.61382866	-0.3293483	1.4360924	-0.767137	-1.1925788	0.67045736	-0.3972114	0.22015378
0.39451566	-0.066279724	0.20616372	0.040623914	-0.4110986	0.075044684	0.19544807	-0.11044518	0.24382985	-0.12874494	0.34757805	-0.25916883	-0.22807366	0.2663906	0.02957854	-0.011575444
-0.22522044	0.22969905	1.3202181	-1.1074641	0.63873416	1.1560065	0.8409884	1.5953181	-1.1296756	1.3066212	-0.09306221	1.0993859	-0.9582929	-1.2182931	-1.370871	1.1415
-0.47199276	-0.09881681	-0.48814666	-0.093560494	0.38998175	-0.32891068	-0.42270523	-0.22132558	-0.06605923	-0.023619171	-0.29032418	-0.07790478	0.4074399	0.029776754	0.03946178	-0.27645022
-1.0505517	-0.7471662	-0.25702757	-0.9129334	1.092946	-0.5009727	-0.7730967	-0.009993513	0.21344766	-0.42289972	-0.019273708	-0.45787576	0.48988226	0.5035901	0.3883734	-0.6619546
0.4061799	-0.22054005	0.27858108	0.08167791	-0.41616616	0.008241891	0.1807522	-0.092641875	0.35972226	-0.13110347	0.32513753	-0.2727349	-0.30786294	0.22746885	-0.10938713	-0.016261188
0.15883708	-0.07159741	0.34736142	0.19920774	-0.029746111	0.13320178	0.33774275	0.18098001	-0.041696373	0.16698931	-0.0535779	0.17140804	-0.23796572	-0.22363143	-0.46187514	0.23933206
0.06047681	-0.10013258	-0.24145338	-0.13530537	-0.032279763	-0.13268113	-0.15071212	-0.12394054	0.12237337	-0.14970072	0.18447411	-0.3170247	0.072052956	0.26469985	0.13153566	-0.15677135
-1.1271193	-0.5854245	-1.1776344	-0.5722133	1.0450459	-1.0009098	-1.0484227	-0.860726	0.32298392	-0.5827282	-0.28951454	-0.5161936	1.0930241	0.5940132	0.71142906	-0.8015556
0.37697926	-0.8808877	0.94008565	-0.27615327	-0.36324868	-0.41709358	0.028144572	-0.20651637	0.63450843	-0.49663788	0.33800972	-0.42581776	-0.26318938	0.37626842	0.033835325	-0.4671707
-0.025577538	0.047553778	-0.2652753	0.4181973	-0.029938541	-0.22034183	0.05642342	-0.30294743	-0.045638204	0.074912295	-0.22571117	0.19460987	0.17024061	-0.19774732	-0.21060432	0.062310785
0.08412908	-0.039457336	0.025783347	0.2998607	-0.06933632	-0.08450541	0.105628304	-0.13229337	0.031705607	0.12251228	-0.09038675	0.122282505	-0.042194802	-0.07558732	-0.288732	0.12629451
0.31228402	-0.13718387	0.18338832	-0.20343779	-0.22716837	0.032496817	0.107900605	0.05157443	0.12803313	0.019004606	0.31288022	-0.14303611	-0.22274467	0.19854267	-0.09438355	0.023551581
-0.66211295	0.9088254	-1.2747657	1.3585849	0.3475692	-0.66938764	0.1340697	-1.1357803	-0.6104994	0.6591793	-0.8187194	0.75817895	0.8931304	-0.8946915	-0.7180519	0.6972557
-0.75627846	0.55218494	-0.9520092	1.0145148	0.5227916	-0.4384962	0.01238074	-0.44144312	-0.47241977	0.5771104	-0.75152713	0.6910597	0.7234362	-0.7427455	-0.5187006	0.46424302
1.4690808	1.0553706	0.4184648	0.44507903	-1.4217266	1.1189836	1.373719	0.50118446	-0.57813966	0.8046814	1.3134724	-0.10656598	-1.3019125	0.01293719	-0.88709223	1.041277
-0.07428711	-0.64159477	0.4018881	-0.18483631	0.04965838	-0.38266692	-0.20663986	-0.020934194	0.3755771	-0.2322145	-0.061989333	-0.08619455	0.08676437	0.1437021	-0.04994881	-0.22089651
-1.2513416	0.82981664	-1.7037482	1.4247495	1.0318272	-1.3529412	-0.34997317	-1.7182837	-0.71382457	0.56382793	-1.3321451	0.89013666	1.6930714	-0.92599344	-0.47395614	0.3630174
0.6816132	0.5735406	-0.08859262	-0.26544583	-0.49381617	0.6077809	0.3957412	0.45484102	-0.46248925	0.40129206	0.87541944	-0.2471102	-0.7998173	0.16719604	-0.19895542	0.35404608
0.40029436	-0.5603513	0.3681563	0.15030609	-0.3916883	-0.46114665	-0.020129234	-0.48115006	0.6008256	-0.4064338	0.35641125	-0.33088112	-0.08464853	0.38183466	0.016757075	-0.25660676
0.19251049	0.44900113	-0.6293476	0.578018	-0.33910805	-0.017569957	0.24486415	-0.5685751	-0.14117266	0.23422496	-0.016444577	0.022222254	0.08981634	-0.053622734	-0.2098252	0.24971883
-0.57611907	-0.24241364	0.1535478	-0.42037216	0.6613031	0.083491415	-0.18651643	0.52106935	-0.3200051	0.3394839	-0.39499933	0.25056404	0.0689483	-0.2878875	-0.31916898	0.08303067
-0.029344855	-0.36341706	-0.121820815	0.44448355	-0.014278237	-0.60661125	-0.17990553	-0.64889336	0.42757246	-0.24938522	-0.2792212	-0.04802162	0.56109565	0.047097243	-0.034334026	-0.21208917
-0.55835354	0.46105266	-1.0298643	1.0495249	0.3255942	-0.56189764	-0.10298972	-0.84815866	-0.22653235	0.24969094	-0.8896712	0.53970397	0.80692136	-0.5113554	-0.27975374	0.19641574
-0.14605097	-1.1030352	0.12544972	-1.2179224	0.12520906	-0.65705746	-0.8758124	-0.3769333	0.8945315	-0.89480656	0.8822316	-1.0496274	0.22174439	1.101975	0.7728785	-0.9611386
0.24345404	-0.58025444	0.3597323	-0.0063706287	-0.29219425	-0.5250631	-0.11496893	-0.49805182	0.6206182	-0.45310196	0.25348282	-0.35234514	0.074065	0.40661937	0.14986238	-0.39879614
-0.2981199	0.063376985	-0.05433276	0.25092927	0.25199053	0.10227031	0.1535402	0.13602081	-0.21466993	0.26480132	-0.39616513	0.32272896	0.15060578	-0.38901505	-0.3573463	0.23860452
0.43731305	0.5505732	-0.5695183	0.2799893	-0.3611377	0.21203305	0.24933194	-0.14296481	-0.38714027	0.31823984	0.30308107	0.021803869	-0.28912196	0.022456227	-0.11091891	0.24208544
-0.36335889	0.1343861	0.46896976	-0.073751315	0.5554001	0.38990185	0.31172204	0.7328826	-0.48913038	0.68291855	-0.32331386	0.6628788	-0.23459968	-0.663489	-0.7341838	0.60322547
-0.5162552	-0.038021512	-0.6686968	0.57777464	0.26077408	-0.8296613	-0.39340985	-0.89569914	0.16307198	-0.076480895	-0.6603804	0.14357767	1.0160284	-0.13305297	-0.028661927	-0.15775727
0.18468478	0.15309364	-0.49274465	0.29892048	-0.2183703	-0.20394284	0.056592233	-0.5536077	0.089170046	-0.08613874	0.07047598	-0.09247491	0.10757522	0.14146906	-0.026156904	-0.01984463
0.7550892	1.098759	-0.29584906	0.32846153	-0.63654774	0.65754384	0.82427657	0.23787259	-0.83815026	0.8135711	0.6919917	0.07922737	-0.78339666	-0.16776259	-0.5607331	0.66786194
0.0028645538	-0.5794237	0.046852946	-0.43782267	-0.009747809	-0.5437048	-0.5114967	-0.38710317	0.5517763	-0.52318776	0.28472152	-0.52125376	0.24132955	0.5685375	0.43804988	-0.5491377
0.031492937	0.049460113	-0.33794096	-0.2649426	0.017164474	0.004549412	-0.09012403	-0.026155239	-0.04014497	-0.07048621	0.31139207	-0.24421406	-0.09015615	0.22448497	0.16957815	-0.18233804
0.23493774	0.56972075	-0.6263099	0.65868413	-0.39059052	0.05751264	0.32598704	-0.43479884	-0.15690628	0.26722303	0.042418662	0.056692045	-0.059194267	-0.15769547	-0.31812	0.28873715
1.3833445	1.0604869	0.9072982	-0.054899126	-1.0913105	1.2582594	1.4238102	0.93398273	-0.88902634	1.0074914	1.3091604	0.07131735	-1.4326142	-0.27793068	-1.0832715	1.1588955
-0.066775225	0.51211536	-0.3188564	0.35306942	0.10752342	0.2920428	0.32698882	0.20491476	-0.6423513	0.6700794	-0.12967275	0.4761787	-0.14822799	-0.48481575	-0.54419625	0.4584235
0.0999528	0.7773087	-0.36170432	0.51845735	-0.02407379	0.34312537	0.505328	0.12538607	-0.67536086	0.62925696	-0.025585849	0.45140195	-0.21029201	-0.5090219	-0.44869992	0.5678158
-0.11226365	-0.42411214	0.5082902	-0.4558121	0.22286654	0.05034333	-0.007006803	0.39084473	0.020653466	0.0022116422	-0.026558153	-0.015269503	-0.20848198	-0.04873108	-0.10014235	-0.04794875
-0.14271218	1.1712676	-0.86039203	1.2140715	-0.04971976	0.1420696	0.57136166	-0.34206536	-0.9913439	0.79645354	-0.49978796	0.7813185	0.26518154	-0.7841712	-0.685395	0.82435817
1.3172641	1.1151507	0.35246256	0.20739536	-1.3095474	0.96598405	1.3564601	0.6316012	-0.8452835	0.95844746	1.2422935	-0.16839011	-1.2569964	-0.01968544	-0.9705638	1.0041785
0.47199762	0.3584195	-0.31464174	-0.4390697	-0.30860886	0.29766327	0.114107415	0.20831604	-0.3442881	0.17354235	0.9133255	-0.4095129	-0.49413854	0.4323447	0.1882514	0.006237131
-0.63157326	0.13353343	-0.9551232	0.39130524	0.5046136	-0.41057506	-0.102795176	-0.67597437	-0.33416465	0.15684763	-0.6182474	0.20670953	0.8939476	-0.2695104	-0.12597522	0.12196408
-0.32394895	0.30145577	0.43517542	-0.19555102	0.51221794	0.7076209	0.51460654	0.9363995	-0.7995107	0.8446251	-0.2954612	0.75345755	-0.4272131	-0.82896787	-0.8659519	0.7505608
-0.25732377	-0.36304638	0.24330315	-0.22198682	0.3872627	-0.05436933	-0.2345915	0.26581848	0.010552772	0.11823553	-0.24427155	0.16473329	0.056996744	-0.12694602	-0.11949746	-0.100169785
-0.8330644	0.65528864	-1.4232906	0.97161436	0.67717224	-0.52916324	-0.16814496	-0.91977185	-0.6099729	0.4641757	-1.000927	0.6526504	0.9366021	-0.59707636	-0.16393575	0.16495101
0.021978907	-0.03304421	-0.7549724	-0.24820587	-0.096004695	-0.33086908	-0.30588195	-0.53218806	0.16133691	-0.30884036	0.35747218	-0.4896574	0.036574762	0.52942836	0.35079056	-0.34651402
0.38563845	-0.2745264	0.7091491	-0.16759032	-0.2247446	0.26722312	0.3910344	0.30489486	0.142486	0.073462285	0.42844912	-0.059484333	-0.56637365	-0.003800431	-0.40847808	0.16349348
0.152298	0.18009734	-0.2001857	-0.2449904	-0.0066624354	0.15428756	0.10005173	0.15733144	-0.29193527	0.1535944	0.2774255	-0.114786886	-0.31341234	0.092716284	-0.01063055	0.072394855
0.34498033	-0.5711341	0.37924635	0.03337107	-0.4397719	-0.43172476	-0.114544384	-0.55428106	0.6422866	-0.5393332	0.4030984	-0.44360507	0.004628927	0.46242782	0.16445525	-0.38642198
0.21935192	-1.1190103	0.13011856	-0.6119131	-0.20001963	-1.0702189	-0.7450811	-0.9721431	1.0114337	-1.0661843	0.73761564	-0.99997354	0.48853192	1.1253927	0.72230417	-1.0581447
-0.124296606	-0.12302581	-0.5654442	0.5523331	-0.07823996	-0.68295527	-0.33870268	-0.90460896	0.44766214	-0.2889548	-0.25185764	-0.1313945	0.6465919	0.19580352	0.22322229	-0.3385497
-0.057024587	-0.05067059	-0.025294434	-0.21828815	0.17985962	0.01953194	-0.014646748	0.20808864	-0.05165038	0.10783752	0.16271475	-0.07439128	-0.12293104	0.08592595	-0.06001577	0.0025298782
0.1131944	-0.23943046	-0.022230694	0.2339678	-0.11590771	-0.35361674	-0.14200173	-0.34894392	0.3606775	-0.2658177	-0.0005345796	-0.14878474	0.14505805	0.123563856	0.052698217	-0.24663128
0.081755646	-0.6741192	0.6529511	-0.065250166	-0.13778804	-0.21324334	-0.00033983443	-0.016327837	0.4826231	-0.19906053	0.08149348	-0.11166266	-0.0119381845	0.14504585	-0.17747976	-0.22984141
0.046611454	0.5420657	-0.6386579	0.6187125	-0.19063349	0.035053693	0.15973634	-0.36323026	-0.3012628	0.29571608	-0.17391695	0.16938582	0.041667838	-0.24664125	-0.2180339	0.24793896
-1.051027	0.7665259	-1.5456749	1.2257795	0.90604436	-0.6762787	0.097261555	-1.2893451	-0.8007589	0.6500008	-1.2811862	0.8881116	1.4352245	-0.912111	-0.60754234	0.5703199
0.32538518	0.32742685	0.15435985	-0.049252503	-0.16306904	0.47101328	0.3496207	0.4493309	-0.36931136	0.37892497	0.33429354	0.10810655	-0.5326959	-0.20748481	-0.30337226	0.37751722
0.40841958	-0.52025765	0.63323	-0.47993603	-0.24708828	-0.08645961	0.05877525	-0.08025709	0.39050618	-0.2980244	0.6017599	-0.36365944	-0.3286634	0.366967	-0.0020748817	-0.29132462
0.32057118	-0.54744744	0.26095134	0.3911358	-0.39108655	-0.57020634	-0.05441584	-0.5932352	0.6075737	-0.49131498	0.14989169	-0.25852567	0.11858149	0.30315363	0.087812535	-0.313693
-0.62425137	-0.06987193	-0.014211868	0.29591092	0.56040937	-0.031558037	-0.07192771	0.101000056	-0.16921794	0.32524925	-0.6205994	0.4829429	0.37932286	-0.5106624	-0.51748914	0.26134932
0.37995058	0.029044883	-0.17019607	-0.037532855	-0.41729	-0.06715431	0.021171385	-0.2716584	0.24302043	-0.15360747	0.46547776	-0.41086477	-0.19081695	0.36013752	0.1324821	-0.1713658
0.10931669	1.1921648	-1.1790558	1.2440274	-0.41155365	0.17083135	0.5271183	-0.55397314	-0.9033861	0.67299634	-0.25826722	0.53402644	0.11561039	-0.55419576	-0.49750757	0.6890612
0.32483754	-0.50386333	0.32981083	0.50044817	-0.3637392	-0.61746395	0.09216946	-0.73188627	0.61525726	-0.39839336	0.06128264	-0.1959815	0.23448685	0.2284499	-0.055823047	-0.29141924
-0.4074392	-0.50401217	0.048555203	-0.09023338	0.33021533	-0.46057037	-0.3874286	-0.10127905	0.19119065	-0.12847184	-0.36074907	-0.026068695	0.44777986	-0.028673623	0.048239212	-0.24751593
0.43440947	-0.68870765	0.80569065	-0.19138183	-0.34297222	-0.1373414	0.07141868	-0.09555136	0.5577478	-0.39972106	0.4513587	-0.34370092	-0.36515188	0.3365446	-0.08702482	-0.29795355
-0.37944347	-0.32465982	0.00484264	-0.4828532	0.4097844	-0.07463767	-0.26460737	0.20077386	-0.06355163	-0.10994994	-0.036214624	-0.18267936	0.078817226	0.096390545	0.13304324	-0.1865995
1.7017037	1.3801842	0.7639161	0.47057045	-1.5657043	1.4044267	1.6231391	0.98435366	-1.2626245	1.3010135	1.6185517	-0.23978274	-1.5098512	-0.043471206	-1.2711205	1.4190807
0.92234296	-0.653966	1.1511127	0.36716172	-0.8410749	-0.12282377	0.68905056	-0.33491558	0.6862357	-0.50607336	0.76154935	-0.4738869	-0.8403375	0.54031605	-0.22335504	-0.18280357
0.4260337	0.14824024	0.09978615	-0.38595816	-0.2937175	0.1945492	0.13863926	0.17977391	-0.034586173	-0.05734582	0.73633724	-0.372672	-0.5116869	0.36562508	0.04735194	0.05011838
-0.18728204	0.122844845	-0.1281972	0.4599375	0.08394075	0.030700887	0.25519583	-0.04977931	-0.09077359	0.34474668	-0.2744428	0.32812724	0.17559776	-0.32268006	-0.47471762	0.28378776
0.65263647	-0.72887766	0.78808194	0.1111091	-0.65458405	-0.42813444	0.117535844	-0.53619343	0.760913	-0.61213064	0.561647	-0.5470809	-0.26116058	0.56992763	0.09296725	-0.3809007
0.23586302	-0.5236327	0.5778602	-0.18683676	-0.26860806	-0.14099361	0.027107045	-0.04429358	0.48539183	-0.2660495	0.3223848	-0.2789617	-0.16451287	0.35382688	-0.037497144	-0.2432907
0.8540897	-0.41365424	0.49317166	1.4439362	-1.0539421	-0.8206051	1.2172763	-1.348922	0.8181257	-0.5681179	0.17562674	-0.17102185	0.13964887	0.20221919	-0.35391325	0.03731929
0.21307586	-0.54518646	0.5040822	0.0021747607	-0.14643326	-0.18240039	0.100092925	-0.12764819	0.40047118	-0.21837953	0.12865219	-0.14923717	-0.1291351	0.20920533	-0.12921058	-0.19179176
-0.5546616	-0.13218403	-0.89929956	-0.14428593	0.49226546	-0.45285904	-0.50430626	-0.6321187	-0.02191649	-0.19122931	-0.16028003	-0.29153228	0.63536125	0.30452183	0.34922028	-0.32154682
0.54409766	-0.7618666	0.54745764	0.12512998	-0.5870185	-0.7937033	-0.020838644	-0.8242714	0.79164803	-0.7390482	0.50504756	-0.58866924	-0.05380121	0.5869768	0.10649317	-0.57581574
-1.0895119	-0.84576255	-0.7120709	-1.049901	1.0007707	-0.7393609	-0.9586342	-0.27742183	0.33025765	-0.5210438	-0.2505924	-0.6037783	0.9269507	0.6618565	0.6780184	-0.7980557
0.34687606	-0.29888818	0.59221643	-0.16972287	-0.26396677	0.03631208	0.12927468	0.10412057	0.33285475	-0.16751462	0.3555907	-0.19239862	-0.3872865	0.17436144	-0.119064964	-0.05681282
0.83458745	-0.34481034	0.79600185	0.3741697	-0.83411187	-0.010021345	0.5221268	-0.36067337	0.570404	-0.30818272	0.60908055	-0.33556452	-0.50099605	0.30757082	-0.17167805	-0.016912606
0.2642575	-0.4677286	0.032062173	0.9434135	-0.5079244	-1.1192386	-0.07269161	-1.2158651	0.65953547	-0.5420703	-0.1656483	-0.13195431	0.7593096	0.25809333	0.025875527	-0.36068362
1.2219238	1.2223724	0.13153307	0.34600365	-1.1459357	1.1904532	1.26356	0.7516995	-1.1274977	1.0531484	1.2433643	0.11358656	-1.2047306	-0.3557004	-0.855763	1.0995975
-1.1565205	1.1627766	-1.6856104	1.6045938	0.9080345	-0.94709086	0.08526986	-1.3770907	-0.8812227	0.730522	-1.3872925	1.0995272	1.4837513	-1.1573373	-0.6658039	0.7173481
-0.37415007	0.318329	-0.20392042	0.108338304	0.49638927	0.2143284	0.15129806	0.41669413	-0.6276352	0.5113795	-0.24146107	0.49451345	-0.10580149	-0.53907806	-0.3877753	0.30261755
0.10364803	-0.30729857	-0.008472656	-0.7941846	-0.043103278	-0.07748538	-0.29150906	0.13722162	0.22773157	-0.2725375	0.82336223	-0.59628546	-0.23632516	0.6496394	0.30403712	-0.3484354
-0.10496104	0.3857133	-0.9693918	0.8428266	-0.18817198	-0.38671148	0.040307183	-1.0849736	0.017546238	0.14037989	-0.32651734	0.1324087	0.4940351	-0.16360514	-0.18808164	0.12438727
0.107163765	-0.14465968	0.07942946	0.028238436	-0.09979576	-0.16949338	-0.055362046	-0.18047062	0.13225125	-0.14752832	0.080688246	-0.051670633	-0.01836078	0.088285394	0.008758637	-0.13227186
0.4766106	1.1325437	-0.36321712	0.43116826	-0.375619	0.4511916	0.5868375	0.22012046	-0.9845853	0.73313713	0.40958843	0.2530242	-0.4874431	-0.3844769	-0.3776687	0.62064743
0.12060123	0.0912362	-0.098788075	0.6557743	-0.26047397	-0.10565663	0.3783212	-0.31099936	0.042176154	0.2089993	-0.15970857	0.30530858	0.133585	-0.23717615	-0.42945108	0.35452062
0.031100243	-0.20980191	0.27319866	-0.860948	0.13790308	0.18674187	-0.13121793	0.44656512	-0.042098068	0.0042381696	0.5086107	-0.31886736	-0.41727072	0.30276117	0.13819715	-0.1706187
0.08509873	0.599513	-0.28811073	0.42294163	0.00570537	0.3361724	0.2880451	0.21215685	-0.5320638	0.6105177	0.12307295	0.5360145	-0.34042332	-0.42876565	-0.3618775	0.3499085
-0.41973662	-0.07023386	-0.26542133	-0.09544537	0.39832798	-0.19233999	-0.2776096	-0.12015746	-0.08459951	0.01607771	-0.2686949	-0.029359693	0.35588384	-0.0006947587	0.00158503	-0.15596133
0.23022239	-0.0057392586	-0.10596366	0.29557058	-0.31753704	-0.12886222	0.16250166	-0.2951115	0.12510991	-0.06476511	0.12596866	-0.057817407	-0.043672398	0.0052680443	-0.07588177	0.017095583
-0.028160335	0.46556026	-0.75456715	0.7774817	-0.1718271	-0.18122886	0.15597609	-0.66129476	-0.17130958	0.20061508	-0.26346183	0.21374522	0.3121504	-0.29853162	-0.2082653	0.2649235
-0.09663945	0.25672045	-0.40121585	-0.5802021	0.10463125	0.2072012	-0.12386927	0.3215478	-0.5443757	0.20036586	0.5219237	-0.3608437	-0.1960901	0.26268023	0.1291278	-0.018353295
0.6542466	0.3280291	0.49257722	-0.0814964	-0.58643603	0.6827965	0.75096416	0.4555958	-0.13154936	0.37059373	0.6765355	-0.046008267	-0.782759	0.0013875116	-0.5056273	0.5168032
0.9334737	-0.96868235	1.0844101	0.41740927	-0.9564819	-0.7494996	0.45022187	-0.8681115	0.97582644	-0.80123985	0.8925085	-0.78523713	-0.69772243	0.8743482	0.112299696	-0.7237934
-0.20746186	-0.116495274	-0.40294984	0.34762782	0.219034	-0.39291522	-0.17012557	-0.37964475	0.0833957	-0.062842935	-0.32447103	0.1091525	0.3942377	-0.03353986	0.016035685	-0.11926482
0.008202097	-0.09286454	-0.052361842	0.4502886	-0.08174189	-0.28301102	0.06447686	-0.3214368	0.18137321	-0.09002011	-0.23342986	0.084336534	0.26097614	-0.08866375	-0.20829806	0.080433324
0.05985818	0.07277324	0.24920149	-0.026749693	0.07578739	0.29747286	0.27878973	0.3175691	-0.20861737	0.27960405	0.05158628	0.15897219	-0.36845237	-0.18369178	-0.22980717	0.2516839
-0.50820947	-0.058999993	-0.8936831	0.4795423	0.23431893	-0.8722999	-0.48332712	-1.0526243	0.32619688	-0.34380698	-0.5519819	-0.121818505	0.9752051	0.116510145	0.22118807	-0.42015257
0.3535128	0.36542654	-0.026476925	-0.2634304	-0.24692264	0.37558353	0.2848383	0.31829622	-0.3796647	0.30669138	0.5170112	-0.046674237	-0.5430661	0.07098996	-0.065764874	0.20062038
0.007952328	-0.17786886	-0.007843101	-0.025092628	-0.024910359	-0.1516279	-0.0035054807	-0.084650666	0.17190102	-0.014234107	0.051350515	-0.17581676	-0.020108612	0.106106885	-0.084381424	-0.04622686
0.38278553	0.24302502	0.13845234	0.055280857	-0.29800737	0.30709782	0.40723664	0.18655995	-0.084723525	0.19391425	0.41250226	-0.13330144	-0.40223393	0.0359592	-0.25089118	0.29047245
0.42735723	0.17676276	-0.060624916	0.012842234	-0.37633935	0.19075134	0.28586644	0.05523577	-0.07269165	0.118635856	0.46571252	-0.22735861	-0.40458795	0.116491675	-0.028614363	0.13410439
0.45787084	-0.5006699	0.830366	-0.040663265	-0.38448453	-0.09853748	0.24936645	-0.06692005	0.45672974	-0.30546263	0.3140984	-0.15439609	-0.41989112	0.24542235	-0.19531506	-0.08948178
0.034989875	0.12662256	-0.073663116	0.071866065	-4.3979962e-06	0.00025341852	0.10494699	0.044254106	-0.11802831	0.11493605	-0.060829546	0.019981934	0.015780209	-0.13073567	-0.1270463	0.09818348
-0.11940132	0.2646806	-0.33520472	0.30150908	-0.07509715	0.04753589	0.15231597	-0.16733743	-0.23809662	0.36544028	-0.16754137	0.21374817	0.10669547	-0.17755292	-0.35396597	0.22169861
0.18587705	-0.21241264	0.51262957	0.061187834	-0.07340016	0.1337189	0.15793952	0.09277039	0.06431992	0.0007038552	0.14743435	0.1357484	-0.25492632	-0.13441724	-0.26898113	0.071072444
-0.061627727	-0.17641014	-0.21048339	0.18051516	-0.052319486	-0.41329417	-0.24816659	-0.48402935	0.32681313	-0.36543635	-0.0405908	-0.2189859	0.33417258	0.22603856	0.23183745	-0.3559868
-0.798478	0.37594965	-1.23884	0.43199626	0.7637692	-0.5423955	-0.23566134	-0.75789165	-0.4427238	0.19460368	-0.70741975	0.21864046	0.90841687	-0.29662076	0.0065879086	-0.006178077
-1.0793808	-0.32206014	-0.25463533	-0.5885085	1.1638166	-0.15011987	-0.48448062	0.3657899	-0.33623213	0.11813987	-0.447664	0.07779587	0.403783	-0.08626148	0.12985544	-0.19624145
-0.015250183	0.40643623	-0.42513043	0.11600593	0.112945765	0.091422014	0.11717696	0.036092464	-0.37017557	0.33581465	-0.028457891	0.079955615	-0.023250652	-0.2135718	-0.09969004	0.21444535
1.3840196	1.4497135	0.49731663	0.38973135	-1.3214012	1.2618817	1.4683952	0.9714685	-1.3090323	1.2778392	1.3923869	0.3029549	-1.4125967	-0.5467593	-1.1439551	1.3612378
0.47018006	0.47791773	-0.3041374	-0.37433922	-0.3622203	0.34177744	0.18650687	0.046882324	-0.22492388	0.0920622	0.8080115	-0.50307477	-0.48121098	0.4222333	0.13036083	-0.013764869
-0.40521312	-0.025256652	-0.5095598	0.11763451	0.4516028	-0.30614734	-0.27850875	-0.21014567	-0.12005398	0.07038494	-0.27686185	0.10867154	0.3889581	-0.066481635	0.04075838	-0.09907079
0.18644886	-0.21223341	0.16455792	-0.2051038	-0.1952281	0.0020229067	-0.014193703	-0.048486084	0.26271206	-0.12442738	0.35706025	-0.24837038	-0.21859835	0.2626585	0.08558834	-0.15261976
0.10636919	-0.21392046	0.2606869	-0.18524526	-0.04456603	0.0025534318	0.049945615	0.09143123	0.06557911	0.01879904	0.15492554	-0.053123638	-0.17201777	0.04613936	-0.10625367	-0.040614642
-0.19032778	0.16487566	-0.052315693	-0.37319297	0.30191585	0.2544911	0.032043908	0.4215832	-0.40086338	0.34488738	0.06611097	0.13530323	-0.21928185	-0.17669006	-0.120820895	0.115295224
0.41525182	-0.34743398	0.303313	-0.086437695	-0.44818538	-0.14402507	0.047312576	-0.24607895	0.3795834	-0.32968238	0.5400308	-0.4140311	-0.2982326	0.42916256	0.107718416	-0.14703007
0.65755576	0.5173283	0.019883864	-0.09905471	-0.5247576	0.5428349	0.43047974	0.4049216	-0.5104055	0.4415138	0.788357	-0.04988852	-0.6957744	0.060509864	-0.26478535	0.38985136
-0.26261044	0.7159122	-0.77782273	0.7506302	0.20820777	0.070483536	0.35853124	-0.20550208	-0.638116	0.5249192	-0.41945574	0.47796863	0.2489218	-0.56010246	-0.46708715	0.5357254
0.49069396	-0.8622976	0.5641139	-0.05103799	-0.51106614	-0.66007	-0.04492607	-0.7113483	0.82589763	-0.7223758	0.6410489	-0.6930928	-0.13436523	0.715213	0.25683418	-0.6456433
0.86548805	0.93132156	-0.059399236	0.14347483	-0.85491794	0.64676857	0.69700867	0.2613848	-0.6102808	0.53064936	0.887406	-0.20739496	-0.8133184	0.123316176	-0.28321347	0.5411558
-0.45805556	0.12402346	1.1507833	-0.9700105	0.69574815	0.7993959	0.6778538	1.1242498	-0.6205806	0.90172577	-0.16371463	0.61380404	-0.5498591	-0.70941556	-1.1397507	0.974741
-0.26501676	0.1713632	-0.30981734	0.05265975	0.2324502	0.06678636	0.028736893	0.03508072	-0.36433017	0.39737445	-0.13726406	0.14066057	0.04533541	-0.17314972	-0.22325209	0.1124675
0.13080221	0.25413388	0.042913426	0.2822238	-0.017843427	0.26466152	0.35868025	0.21537516	-0.25963038	0.33889776	-0.016430413	0.26837906	-0.17803143	-0.34271613	-0.40049073	0.35059294
-0.5808444	0.85274076	-0.963464	0.93784165	0.48946837	-0.1204934	0.3299698	-0.33356065	-0.9153042	0.6969808	-0.6809022	0.7045745	0.5996058	-0.7789392	-0.588909	0.60782856
-0.8463214	-0.4596374	1.7347493	-1.3815277	1.0947609	0.8614752	0.31073153	1.4258621	-0.5220932	0.7291133	-0.63985837	0.90804297	-0.70287204	-0.96998274	-1.0523607	0.66204387
0.0879376	-0.6568756	0.2773527	-0.53393227	0.02714078	-0.37577745	-0.36323148	-0.13383976	0.55138755	-0.5047481	0.39954948	-0.46546164	-0.0046801856	0.5298608	0.3585947	-0.5207668
-0.05696129	-0.40023172	0.51265395	-0.07522385	0.06888686	0.03482696	0.114780635	0.1703624	0.09156703	-0.036123198	-0.06452565	0.15486532	-0.14838493	-0.10431915	-0.30972308	0.040397886
1.016658	-0.53204054	0.77974224	0.37327185	-1.0348915	-0.32169002	0.5018423	-0.61176133	0.793097	-0.6027844	0.977573	-0.72251457	-0.6333303	0.74238205	0.17404269	-0.42968678
-0.31929448	0.2075366	-0.38410488	0.3925861	0.29810295	-0.055027336	-0.011064573	-0.03117551	-0.24499601	0.2904523	-0.38815835	0.3278916	0.24609302	-0.41268852	-0.20429464	0.21848416
-0.68389267	-0.38843468	-0.7316523	-0.18713422	0.5464161	-0.701713	-0.62094957	-0.69813216	0.26223317	-0.34022018	-0.17570816	-0.38687226	0.86556274	0.35940212	0.34791112	-0.50009096
0.81375957	1.1409441	-0.1966744	0.68892545	-0.88697267	0.70750815	0.9115223	0.1312709	-0.85251504	0.82212114	0.5398965	0.098352864	-0.6575623	-0.18547828	-0.6672986	0.852966
-0.55670553	-0.11480933	-0.60316974	-0.51594615	0.539325	-0.18742058	-0.4752337	-0.054068685	-0.1830117	-0.10458116	0.079412065	-0.2368183	0.24805625	0.24980696	0.3126525	-0.2549873
0.19886507	0.07023976	-0.2551152	0.20553811	-0.15658887	-0.22046	-0.028880702	-0.4791451	0.08159678	-0.11997321	0.17581959	-0.16696565	0.12002017	0.12042109	0.04566483	-0.081701525
-0.6992202	-0.3170213	0.19219103	-0.50383914	0.86223465	-0.046246845	-0.4194348	0.47838876	-0.30966833	0.24473783	-0.5163808	0.23440386	0.21260847	-0.270637	-0.110852286	-0.07119361
0.21093737	-0.6220981	0.97404474	-0.2782471	-0.15182205	-0.1349681	0.07179366	0.046490856	0.3806142	-0.27187422	0.15093733	-0.17730181	-0.2931159	0.16861133	-0.13747051	-0.15148352
0.57828414	-0.31466463	0.14924432	0.5032926	-0.7055049	-0.45753202	0.28747907	-0.9302867	0.5871351	-0.47137383	0.324151	-0.34919098	-0.046044346	0.34439838	-0.073897496	-0.16802412
-0.107161544	0.16721392	-0.26409817	0.4901728	-0.057851605	-0.18237191	0.23675385	-0.22133015	-0.05243347	0.24746995	-0.2721282	0.2914103	0.21808687	-0.2685772	-0.37780282	0.23940638
-0.25271085	-0.52038026	0.45385584	-0.44116005	0.29808387	-0.011610271	-0.21685112	0.31050017	0.0047566053	0.062370397	-0.1415437	0.13093384	-0.1061464	-0.12530449	-0.19454357	-0.14428061
-0.41238832	-0.19442914	-0.74472064	-0.30971345	0.2708186	-0.40920824	-0.41582337	-0.39251956	0.11188349	-0.33105874	0.10165288	-0.47366142	0.41232514	0.38370824	0.39390832	-0.455789
0.32204938	0.043699205	0.09096447	-0.12764275	-0.32119563	0.0801394	0.15544856	0.057377923	0.11354881	-0.003433578	0.36120144	-0.16454506	-0.2587968	0.1542022	-0.04368397	0.043623608
-0.93483984	0.23549381	-1.0646424	0.7193768	0.7979451	-0.7314052	-0.36471692	-0.7870306	-0.27062654	0.24871857	-0.902453	0.40104192	1.053131	-0.4593124	-0.18959273	0.012611321
0.4688957	-0.2775837	0.87080395	0.012200209	-0.28308415	0.17323238	0.5191476	0.1638632	0.2311957	-0.03756568	0.45068684	-0.035279337	-0.66625524	0.08475804	-0.50084007	0.13494395
1.124418	-1.0691811	1.08503	0.70159674	-1.088951	-1.0369154	0.47884643	-1.147826	1.0887579	-1.0357804	1.078036	-1.0314469	-0.6774474	1.041204	0.2550707	-0.9352029
-0.71947634	-0.4119691	-0.8112741	-0.41688645	0.6570549	-0.6074213	-0.6644901	-0.7493217	0.28132358	-0.45929822	-0.050273538	-0.38985878	0.83648324	0.38683587	0.397542	-0.4541398
0.83200157	0.5473261	-0.007495528	-0.29515868	-0.7790557	0.5795051	0.5725431	0.33319673	-0.38817403	0.4829985	1.0290784	-0.3176746	-0.88039523	0.19775002	-0.30402732	0.3640749
-0.20518592	0.008035904	-0.29478678	0.19833113	0.23724867	-0.2015928	-0.06149296	-0.2100659	-0.08691582	0.119295046	-0.3050866	0.10218669	0.21591632	-0.1498212	-0.061658833	0.027100176
-0.43234885	-0.49580148	-0.03251011	0.011031371	0.29206294	-0.5672515	-0.45692968	-0.2957788	0.26295656	-0.2223611	-0.35988826	-0.0046468875	0.47622174	-0.00693639	-0.01601391	-0.28671938
-0.5609419	-0.12934755	-0.8303436	-0.076184824	0.47183183	-0.5697172	-0.43693185	-0.67068136	0.018440338	-0.17757386	-0.2939532	-0.24665141	0.6471949	0.20638365	0.25504103	-0.2844611
-0.22984627	0.19743513	-0.25568584	-0.120705895	0.31799346	0.08702848	-0.04250938	0.22912768	-0.343994	0.2747289	-0.07399565	0.14386779	-0.06348793	-0.10360917	-0.15593338	0.13277265
0.054872524	0.09421326	-0.27776837	0.42020607	-0.054710537	-0.19324155	-0.026346289	-0.33687228	0.041244563	-0.016890114	-0.041213375	0.101924814	0.14311658	-0.027519966	-0.049124263	0.08353802
-0.20105332	-0.09889935	0.13476163	0.11240081	0.24609867	-0.041643802	0.03166776	0.1503058	-0.15165515	0.22677185	-0.23186046	0.28681058	-0.05360276	-0.27958846	-0.34630796	0.16246475
-0.698521	0.43801224	-1.2365956	1.0733204	0.33168724	-1.0030254	-0.35206866	-1.2977735	-0.03595542	0.23492268	-0.7947382	0.43448374	1.1386803	-0.43311542	-0.27156168	0.14209214
-0.85799605	-0.12884146	-0.32660213	-0.45212606	0.9635771	0.06311242	-0.346149	0.3684569	-0.61080635	0.23227343	-0.42345858	0.19101876	0.2135664	-0.24559769	-0.032050114	-0.039933156
-0.3542401	-0.17095076	-0.30729038	-0.36750475	0.44368383	-0.14353915	-0.29151458	0.053351667	-0.13034976	-0.08249799	0.017141068	-0.21380658	0.10636028	0.19442551	0.19490063	-0.25597358
0.30568537	-0.13911954	0.31697878	0.041078657	-0.20731542	0.06856028	0.18562166	-0.043334763	0.13919091	-0.001614543	0.28306407	-0.0869368	-0.24023496	0.10631077	-0.1908214	0.038002905
-1.0652804	-0.8324527	-0.60073537	-1.0584401	0.9609041	-0.595608	-0.88346004	-0.17714858	0.36118358	-0.5087439	0.053332224	-0.6548713	0.65451604	0.7071556	0.6276731	-0.7108605
-0.71094936	0.83284104	-1.216835	1.2719465	0.45676827	-0.8058988	-0.12476111	-1.1079041	-0.5658975	0.48268646	-0.93684655	0.74903566	0.9802693	-0.75343037	-0.4151418	0.3557392
0.1276107	-0.44056776	0.38937494	-0.2602155	-0.036168166	-0.10786353	-0.0985082	-0.0028425592	0.22773889	-0.22007233	0.2744532	-0.17226109	-0.1618163	0.19368471	-0.0047518574	-0.1790157
-0.7976154	-0.560329	-0.94072545	-0.72513896	0.7633165	-0.7358008	-0.83950996	-0.6800021	0.45209342	-0.56297696	0.0614276	-0.6431081	0.76299787	0.7758379	0.70987695	-0.7926302
-0.0024586178	0.24976586	-0.33258322	0.42133057	-0.11403036	-0.07950685	0.11046499	-0.25406054	-0.08432321	0.18667063	-0.19413203	0.15890266	0.17794569	-0.19416352	-0.19250232	0.19586925
0.0042583644	0.012427628	0.0058805123	0.35942748	0.013895855	-0.057732422	0.22629742	-0.1286586	-0.04046277	0.13398845	-0.15242417	0.20394905	0.00641758	-0.25099894	-0.34939906	0.20346157
-1.0547944	0.9053394	-1.7232782	1.4894512	0.7877632	-1.2511369	-0.42417446	-1.6293422	-0.37675682	0.3567671	-1.2030895	0.7693852	1.5055015	-0.79182357	-0.25181198	0.29716033
0.4291499	0.056465067	0.18142223	0.41464803	-0.49822122	-0.023137711	0.3827705	-0.28451347	0.23296075	-0.11914791	0.2467078	-0.079637006	-0.24128221	0.089117214	-0.13137251	0.07912725
0.18649004	0.35751137	-0.15952468	-0.31458977	-0.10666139	0.30325782	0.20273742	0.36685577	-0.44736233	0.30700937	0.38453144	-0.24049428	-0.3915005	0.15646686	-0.107610814	0.22405958
-0.17977579	0.049551263	-0.22701807	-0.015839694	0.25238156	-0.01778463	-0.10918883	-0.0131176235	-0.1842818	0.1193055	-0.1585494	0.038743272	0.12067399	-0.031940553	-0.020976456	0.061764702
-0.468527	0.3820955	-0.61555773	0.53181034	0.42946747	-0.1805293	-0.049056258	-0.26967055	-0.34871125	0.36901852	-0.5564664	0.5011007	0.53879	-0.51130503	-0.33153835	0.2987794
-0.06861721	1.0178009	-1.0031248	1.190584	-0.22753315	-0.13371316	0.5299687	-0.7921862	-0.4857531	0.6212449	-0.33640584	0.45986697	0.27062222	-0.47175604	-0.6259004	0.739074
-0.21630445	-0.11427556	0.07178307	-0.0020628662	0.25290933	0.06771451	0.060971312	0.19554226	-0.19347496	0.22040384	-0.2093504	0.25416288	0.020877471	-0.28582102	-0.31804356	0.14273423
1.1949632	0.9567042	0.3080294	0.14213325	-1.0477023	0.9016657	1.0838895	0.57676846	-0.81369954	0.93114257	1.1010456	-0.20614246	-1.0676222	0.020095559	-0.8753964	0.9528858
-0.66558856	-0.64841485	-0.09284333	-0.91555095	0.6573226	-0.25943792	-0.58781606	0.2361792	-0.018733911	-0.15129206	-0.101362996	-0.21409604	0.27578795	0.2134835	0.24016987	-0.36832622
-0.025587102	-0.14142707	-0.14409207	-0.023027344	0.02489165	-0.29621628	-0.18080519	-0.2636414	0.2027184	-0.17088835	0.0076993634	-0.11385697	0.15393183	0.15438633	0.07820938	-0.2187306
-0.29598406	-0.5651276	-0.3387184	-0.38413492	0.22429676	-0.6865361	-0.540865	-0.5145928	0.49501574	-0.5378882	0.04111454	-0.50620323	0.568602	0.49198836	0.4544362	-0.5873641
-0.8745206	-0.44225585	1.2306501	-1.1391126	1.0026855	0.5523744	0.05715226	1.1244628	-0.5612222	0.80487305	-0.5958723	0.77994204	-0.28127086	-0.86568594	-1.0101849	0.6024045
-0.19052769	0.17755647	-0.38290277	0.45763358	0.14261942	-0.13296434	0.05137762	-0.19584909	-0.12984912	0.17814262	-0.31954435	0.24273193	0.23324329	-0.21827206	-0.22430784	0.17730269
-0.0028243018	0.30925012	-0.110191405	0.25593045	0.054840676	0.16687638	0.22285722	0.20211425	-0.38967115	0.35575116	-0.07617803	0.35687304	-0.1947998	-0.39050403	-0.41928056	0.35923457
-0.13231342	0.16783474	-0.28453824	0.055456843	0.078390546	0.023001248	-0.031189809	-0.020646935	-0.18397039	0.12834486	-0.022809867	0.0630027	0.036798667	-0.0952197	-0.06917474	-1.0342686e-05
-0.6516912	-0.013953487	-0.9813847	0.16717747	0.47037032	-0.6989981	-0.45941007	-0.9447886	0.10856969	-0.12791549	-0.40649927	-0.08050774	0.78739	0.04265702	0.22702904	-0.3013278
0.055729833	0.3337879	-0.32487842	0.69745874	-0.1395497	0.06930751	0.46460313	-0.24171275	-0.19511227	0.3380955	-0.40138617	0.40283152	0.11240518	-0.4530358	-0.5037114	0.4172903
-0.97954875	-0.25859895	-0.61258954	-0.6351235	0.98354083	-0.31241062	-0.66561866	0.096337415	-0.28333217	-0.103305824	-0.31557387	-0.17173903	0.5125739	0.12514208	0.38912305	-0.38985103
0.3881962	-0.20334962	0.30772388	-0.15909114	-0.29768392	0.01605814	0.100584865	-0.097337045	0.28721952	-0.23239511	0.46668765	-0.30802962	-0.30145487	0.35235897	-0.008101139	-0.06907319
0.38422096	0.56086344	-0.48831883	0.10535561	-0.37281147	0.33995003	0.26767412	0.103923924	-0.5075428	0.31552973	0.36443052	-0.08279703	-0.36802402	-0.053923883	-0.1758188	0.22623768
-0.20444348	-0.66676414	0.24278365	-0.6219073	0.24158731	-0.2921928	-0.44961822	0.05273323	0.29605028	-0.30492234	0.11929816	-0.3262379	0.14117756	0.32628238	0.23074041	-0.3777775
0.5688163	0.40231937	-0.023781024	0.60458004	-0.5852292	0.1442329	0.54485035	-0.23363328	0.054108564	0.06576201	0.32121918	-0.006911535	-0.31009412	-0.0041185147	-0.2483356	0.36562106
-0.10473188	0.27265632	-0.42829126	0.852442	-0.083353125	-0.21568476	0.2198758	-0.44534346	0.0327193	0.19818161	-0.3563903	0.31000307	0.36015686	-0.31139082	-0.42946738	0.24161047
0.11235069	0.084217645	-0.50332016	-0.17131306	-0.1535472	-0.060121242	-0.14552434	-0.18427896	-0.042646643	-0.05885747	0.29146752	-0.24320173	-0.08955994	0.31616348	0.15771553	-0.14244542
0.19111411	-0.6255809	0.24235307	-0.031399142	-0.24040048	-0.5801303	-0.3173664	-0.52500254	0.6346987	-0.45204923	0.20424168	-0.4549689	0.2760719	0.41179192	0.19559982	-0.48931888
-0.2240475	-0.29998976	-0.2614697	-0.47855195	0.23181528	-0.19653225	-0.32238656	-0.0037198435	0.011658542	-0.19941635	0.20885092	-0.33000886	0.10427801	0.29834542	0.28066745	-0.36324438
0.24586909	-0.9989661	0.21083441	-0.60132533	-0.3030687	-0.86696786	-0.6406209	-0.8657728	1.0669912	-1.0009178	0.8508133	-1.0000782	0.33664453	1.0430561	0.7053374	-0.8717644
-0.10725039	0.23053749	-0.42108613	0.34466913	0.097065024	-0.17974848	-0.10253492	-0.32070076	-0.12769525	-0.033864904	-0.05825309	0.049559288	0.096240416	-0.060089264	-0.031626824	-0.030939853
0.1605877	0.1635501	-0.24227808	-0.039095327	-0.0797793	0.07367605	0.06681172	0.013993201	-0.20783748	0.12224924	0.26635322	-0.09575647	-0.17522664	0.008650758	0.0141032245	0.11123177
-0.14250372	-0.53152853	0.36835054	-0.45864105	0.18214653	-0.23160069	-0.24866697	0.046911664	0.21955572	-0.22557521	0.037390124	-0.17144412	0.048373256	0.21982644	0.06814567	-0.29697105
-0.93584085	-0.08910335	-1.0637827	0.43035498	0.7006947	-0.8965543	-0.7179606	-0.88490045	0.097499855	-0.16117088	-0.8719776	0.15295102	1.1184211	-0.095493436	0.18120554	-0.3380871
-0.6236685	-0.20164235	-0.53165644	-0.54514027	0.67344284	-0.24637166	-0.5435368	-0.03015631	-0.07547086	-0.22829291	0.016827548	-0.2515324	0.35873258	0.30699793	0.31435424	-0.38708648
0.0059916233	-0.28026226	-0.19671799	-0.6222209	-0.10018432	-0.16883217	-0.26639673	-0.13350263	0.34121752	-0.37344578	0.5928178	-0.76622623	0.026734862	0.7747618	0.38887823	-0.4009815
-0.9266653	-0.96384513	-0.96011084	-1.0879661	0.77548057	-0.9634406	-1.1297606	-0.8502517	0.847153	-0.9061712	0.37456545	-1.0475601	0.9553358	1.0944184	0.8945769	-1.0735052
-0.7395376	0.2410388	-1.0185509	0.54403687	0.69748527	-0.47225466	-0.30463272	-0.6389624	-0.31219652	0.091593586	-0.6877627	0.28100467	0.8117811	-0.31007627	0.042219363	-0.020194216
0.8137258	-0.9460586	1.089664	0.30137497	-0.85115665	-0.74330974	0.299923	-0.69945025	0.9358942	-0.82858026	0.625406	-0.6539258	-0.45639804	0.736664	0.096080214	-0.61937743
-0.57982427	-0.24865839	-0.553085	-0.36872694	0.5698389	-0.45392132	-0.5545948	-0.29552183	0.050856534	-0.335571	-0.08765658	-0.34240723	0.5276153	0.38479397	0.4633244	-0.51614165
0.21599837	-0.0118412925	0.32776442	-0.0865228	-0.15665786	0.20715176	0.26208925	0.14874613	0.04898004	0.112105	0.22159106	-0.032180604	-0.34585932	0.010994875	-0.26589128	0.16468433
0.19786005	0.6593702	-0.17683232	0.16303693	-0.038858198	0.5268043	0.41947716	0.44275385	-0.67882705	0.6211492	0.19031878	0.27215004	-0.4579872	-0.4181158	-0.39681345	0.5027406
-0.7843621	-0.79928213	-0.69618964	-0.97330976	0.7103712	-0.7681337	-0.90452325	-0.58661747	0.8905936	-0.7911111	0.4877559	-0.7855293	0.7934827	0.89585125	0.68074197	-0.8329917
-0.6276636	0.1720722	-0.6036464	0.39135832	0.5259296	-0.22754574	-0.065280035	-0.29049847	-0.29597428	0.30960566	-0.5853434	0.31685793	0.5355011	-0.33939338	-0.28313917	0.14695905
0.2553546	0.36716256	-0.24224891	0.12026211	-0.30724254	0.21388535	0.24843282	-0.009034772	-0.22651303	0.148861	0.30327412	-0.08474118	-0.24101397	0.0037699367	-0.04832941	0.17991483
0.89106685	-0.82594186	0.88722885	0.3910383	-0.8980734	-0.7079142	0.36414403	-0.878502	0.91726786	-0.75979364	0.7323989	-0.6775093	-0.4698	0.760352	0.060845938	-0.57511663
-0.5564418	0.5159645	-1.0574187	0.9527096	0.29114014	-0.55948013	-0.03942725	-0.8865441	-0.29591534	0.35085067	-0.7976522	0.51048964	0.94564587	-0.48502707	-0.27583063	0.29302257
-0.18029065	-0.3263929	-0.25036106	0.13850752	0.05713819	-0.63643503	-0.36462024	-0.6502157	0.40175393	-0.3745876	-0.121446334	-0.20884435	0.4681491	0.2957745	0.22796585	-0.37184098
0.40413952	-0.25918168	0.24649255	0.26071396	-0.49434894	-0.36119205	0.10552064	-0.4650977	0.49669063	-0.37510943	0.2799783	-0.31366736	0.019371204	0.28091952	0.043651905	-0.23273595
0.19113821	-0.14272392	0.15971594	0.30895784	-0.16074337	-0.105284445	0.1963146	-0.20348868	0.08788348	-0.07020637	-0.08441162	0.108396344	0.07079344	-0.016635884	-0.23581246	0.08863638
0.058282845	0.4488648	-0.16735248	0.26259562	0.03716416	0.3264247	0.2888914	0.21822909	-0.4058533	0.40907815	0.036670037	0.2730141	-0.1891879	-0.38417447	-0.34349802	0.44826233
-0.2953373	0.5524279	-0.4153676	0.29722324	0.38997915	0.20896189	0.2783195	0.2593827	-0.6998873	0.53069	-0.3897404	0.51203793	0.06309186	-0.50016373	-0.38497078	0.40142375
-0.1555167	-0.07711772	-0.41995865	0.058424797	0.061639585	-0.3478596	-0.30305302	-0.39387238	0.17000131	-0.19380982	-0.11774442	-0.12912963	0.371415	0.17497607	0.1397063	-0.20145907
-0.015641117	0.12196874	-0.42364028	-0.16940224	0.024629017	-0.043814354	-0.07146475	-0.06886278	-0.15879433	0.009030399	0.12537682	-0.18354143	0.008124171	0.21702284	0.0935371	-0.024367487
0.051129904	-0.26010242	0.757227	-0.6053955	0.05854781	0.30240273	0.21021913	0.57916856	-0.046256173	0.08963448	0.16744794	-0.008690656	-0.49681497	-0.008419493	-0.24094	0.13074332
0.63005733	-0.37272036	0.4487747	-0.046388365	-0.5928314	-0.14394104	0.1437198	-0.3037853	0.50698626	-0.40925094	0.7763715	-0.5627627	-0.40735966	0.5396353	0.11448075	-0.17484888
0.2871571	0.27451766	-0.5742211	-0.16110636	-0.2825753	0.051787313	-0.044511918	-0.14235355	-0.18694057	-0.020762976	0.5376878	-0.37251154	-0.19319528	0.39143616	0.20327343	-0.07086912
-0.07610972	-0.22933196	-0.038351208	0.054066956	-0.07696682	-0.21814448	-0.06929529	-0.23124357	0.16804431	0.06129613	-0.14686452	-0.012363527	0.14918922	-0.08092679	-0.2230128	-0.0077543864
-1.0496926	-0.32106426	1.1158398	-1.1480063	1.2839962	0.7330373	0.18427813	1.2876539	-0.961174	1.0257215	-0.73450875	1.1946853	-0.37355918	-1.2374189	-1.1196783	0.6730312
-0.2437957	0.042070623	-0.6908045	-0.15060055	0.21453498	-0.25275296	-0.34480464	-0.37260178	-0.116181105	-0.14249569	0.07446885	-0.23627606	0.2659758	0.21262392	0.26241028	-0.26461118
-0.70284456	0.23968713	-1.0256146	0.47838253	0.5882698	-0.5159298	-0.3421002	-0.6473355	-0.30081937	0.14860298	-0.66883236	0.23313121	0.73893166	-0.19232044	-0.022606222	-0.044471428
-0.44183573	-0.58319336	-0.15873204	-0.77563184	0.40183905	-0.34240177	-0.53922385	-0.03508166	0.19436158	-0.34795696	0.14019828	-0.46603313	0.2687936	0.5050371	0.4723751	-0.59303355
-0.07147994	-0.09076265	0.14242196	0.016428329	0.082302615	-0.087041974	0.031519845	0.06704073	0.027954787	0.030131243	-0.14622739	0.09481804	0.086287305	-0.113657564	-0.2018022	-0.017092034
0.33910948	-0.10142714	0.13264532	0.41952646	-0.26683065	-0.31973985	0.28330576	-0.4723162	0.27008414	-0.10550244	0.06002299	-0.034222342	0.08602742	0.034283143	-0.17244326	0.085474685
-0.046037298	0.42629406	-0.21435903	0.105979785	0.25490835	0.32348356	0.2685033	0.3346353	-0.5290284	0.4992571	-0.10468246	0.37480518	-0.25383914	-0.37862596	-0.30672458	0.38226312
-0.88466746	-0.8076089	-0.72679377	-0.92249644	0.7837974	-0.80161613	-0.89024776	-0.62060636	0.774091	-0.71616644	0.32033533	-0.7344371	0.80797964	0.84825087	0.7277014	-0.8318594
-0.00570932	-0.08146597	-0.24464674	0.32307953	-0.097484276	-0.37564355	-0.032274958	-0.7034907	0.16870902	-0.15397488	-0.14968465	-0.060060337	0.4518911	0.06950085	0.022497732	-0.09799391
0.3807733	-0.09234206	0.1945293	0.12358988	-0.30858964	0.08798261	0.30155584	-0.09120216	0.17609945	-0.06560704	0.29310372	-0.09484745	-0.30441883	0.11849444	-0.13835907	0.083015494
0.23941925	0.32524052	-0.29359466	0.16437529	-0.21938525	0.18769151	0.31162354	-0.04353026	-0.15138768	0.1853577	0.2341372	-0.007646656	-0.23695819	0.018865095	-0.1466987	0.21308036
0.054891165	0.121759616	-0.16440584	0.035810735	-0.0049532447	0.02291999	0.11616416	-0.038755346	-0.122327216	0.16344391	0.05534868	-0.0073396848	-0.07539711	-0.07578688	-0.098719485	0.086589
0.37978703	-0.47282854	0.42168802	-0.2149862	-0.30201676	-0.24924918	-0.08599328	-0.30580997	0.47940788	-0.45695627	0.46248803	-0.45919326	-0.11551891	0.4088307	0.08552719	-0.3306599
0.82372975	0.55655414	0.40712503	-0.15323086	-0.74394697	0.82481474	0.7511613	0.5563106	-0.42728418	0.44535312	1.0276598	-0.19082205	-0.95177895	0.008882975	-0.41573718	0.6022031
0.48216966	-0.40204245	0.48960868	-0.17363983	-0.37866417	-0.09294139	0.098818995	-0.16897465	0.48842156	-0.3133402	0.51815	-0.40502262	-0.29670826	0.42356566	0.030723704	-0.23239446
-0.5574385	0.05076697	0.37359107	-0.5192565	0.79129934	0.41053107	0.10340603	0.8130403	-0.65625274	0.5397087	-0.389683	0.54177535	-0.2350588	-0.58675665	-0.51044005	0.3911511
0.036689967	-0.4383797	0.110838376	-0.20678106	-0.045379255	-0.3196379	-0.17870024	-0.1589679	0.29414982	-0.27835062	0.13953096	-0.2946421	0.12389117	0.23391336	0.14840508	-0.27750698
-0.11901545	0.16125408	-0.37393343	0.26901954	0.13245751	-0.13242657	-0.08897716	-0.14631489	-0.12991282	0.11416814	-0.116088666	0.035207663	0.07108683	-0.06928425	-0.02026865	-0.07484636
-0.37915295	0.07754443	-0.29229772	-0.4400705	0.38384292	0.024093762	-0.21729979	0.24409416	-0.30348283	0.1088204	0.036513764	-0.21244709	0.056481704	0.0824711	0.06541856	-0.061706968
0.4160172	-0.3408625	0.30899882	-0.18565722	-0.46732348	-0.13902305	-0.022459429	-0.3276325	0.49817678	-0.35231164	0.48581308	-0.44777685	-0.17102169	0.43380994	0.18956764	-0.3130864
-0.1548749	-0.10629454	-0.28496784	0.3572638	0.062897064	-0.3434005	-0.12339376	-0.45204738	0.20333396	-0.07378524	-0.18728065	0.121105924	0.2730877	-0.008745574	0.02972606	-0.10371228
0.7235418	0.45302254	0.37420335	0.28258297	-0.53513503	0.6275334	0.8476827	0.38696215	-0.26247507	0.4005978	0.7071105	0.0028014304	-0.77750784	-0.05457132	-0.54415053	0.5727146
-0.40776357	0.49874204	-0.636494	0.57461023	0.38671547	-0.0040953257	0.14939222	-0.08803327	-0.5481816	0.5512055	-0.54960895	0.6091618	0.2532525	-0.64597815	-0.47038993	0.41433385
-0.2699844	0.25817645	-0.056920953	0.26067787	0.18624757	0.25298542	0.30944312	0.24198315	-0.40848956	0.54972	-0.34505054	0.59774923	-0.0813264	-0.5853523	-0.6128182	0.57325816
-0.32441202	0.041014273	-0.28434357	0.42863998	0.32050624	-0.3980985	-0.1888252	-0.31131515	0.011901414	-0.057547193	-0.4143113	0.20000806	0.4011067	-0.1909074	0.018305369	-0.07954326
-0.54410124	-0.20107973	-0.3638736	-0.34079692	0.4932775	-0.2560821	-0.485174	-0.024624249	-0.04540586	-0.11519481	-0.13502598	-0.20605387	0.2965503	0.20082766	0.24962008	-0.38124993
-0.86983967	-0.62158155	-0.18200569	-1.1921922	0.90276057	-0.16500315	-0.62252647	0.4064787	-0.14470327	-0.16571172	0.09184975	-0.32379323	0.18970698	0.28532565	0.34624517	-0.4601639
0.43304142	0.23103207	0.04630376	0.097423665	-0.3909751	0.2633792	0.286729	0.023591015	-0.028363993	0.02595453	0.5484387	-0.23885651	-0.41612342	0.30275896	-0.06762539	0.18691128
0.106936954	-0.013138603	-0.21207118	-0.20992982	-0.11458299	-0.09284204	-0.0865082	-0.16785961	0.14811276	-0.14659138	0.34895682	-0.2675159	-0.13208105	0.2616691	0.118021294	-0.15094675
0.1365824	-0.13833854	-0.118731186	-0.41144383	-0.13837814	-0.06056669	-0.17958938	-0.17563279	0.35463098	-0.29401594	0.50288546	-0.5962082	-0.10013157	0.56878835	0.3357728	-0.29596424
-0.17627361	-0.22244221	-0.19952723	-0.34947133	0.22252318	-0.21929805	-0.27910683	-0.09028869	0.11292703	-0.12642685	0.041951425	-0.19913143	0.11063216	0.23261927	0.21839827	-0.24136409
0.069489375	-0.09223374	-0.21063952	0.12107756	-0.08762065	-0.19912615	-0.024201017	-0.30428118	0.18976699	-0.08636069	0.016477972	-0.091222964	0.13338013	0.06680631	0.070482455	-0.11825171
-1.5396276	-0.4097487	1.5644675	-1.6461306	1.6218488	1.0215507	0.24484429	1.5672349	-1.1141307	1.2076242	-1.1701604	1.3369178	-0.46357536	-1.3611379	-1.3359494	0.96329266
-0.74844474	0.16482122	-1.1209131	0.46782815	0.6538715	-0.5704413	-0.18693954	-0.85663366	-0.3348286	0.19604032	-0.75067	0.2234239	0.9133469	-0.3298417	-0.078705415	0.044334367
-0.20336393	0.121337056	-0.5309401	0.0018969057	0.18130735	-0.18857339	-0.22100316	-0.20718187	-0.102211386	-0.024869224	-0.07141898	-0.16272382	0.23860455	0.085947864	0.10022522	-0.1950885
1.2501457	-1.0074248	1.2626871	1.0860261	-1.2789595	-0.9570157	1.026489	-1.1486925	1.204275	-1.0096047	1.1158192	-1.0687848	-1.0259627	1.0873992	0.30548626	-0.9822729
0.053203445	-0.08846867	0.023191553	-0.14029588	0.097134486	-0.025485577	-0.10969061	-0.060602278	-0.03546125	-0.07404974	0.07335181	-0.05906803	-0.023589851	0.06135025	0.04946338	-0.077014394
0.7233813	-0.80421	1.1218655	0.071819104	-0.5816117	-0.17254753	0.58901	-0.1583044	0.6753837	-0.4482465	0.6205018	-0.36436048	-0.75915015	0.37723127	-0.22364031	-0.26951146
-0.16972391	0.32911983	0.46823782	-0.28251275	0.36349005	0.8012092	0.7966084	0.93810344	-0.84852034	1.09656	-0.13676809	0.82038045	-0.56762296	-0.88786787	-1.1253974	0.97362363
-0.05089588	-0.14315781	-0.32035816	-0.07698087	0.018209124	-0.19813421	-0.21736297	-0.34042895	0.19605239	-0.13001138	0.017413365	-0.23724054	0.1811607	0.18251346	0.12727216	-0.23213118
-0.20892929	0.13419677	0.2064455	-0.19541886	0.2873465	0.39444295	0.21427883	0.5849939	-0.53304446	0.49957865	-0.03875912	0.27893144	-0.25262815	-0.37950933	-0.3908156	0.31837493
-0.13780364	-0.08364106	0.0075816456	-0.3680892	0.16831096	0.0040116687	-0.1261977	0.13774055	-0.06722155	0.07998171	0.02536659	-0.093823016	-0.0734188	0.025692385	-0.01193518	-0.08656786
0.6230859	-0.9204303	0.78044325	0.3516985	-0.6791785	-0.9002112	0.0031207514	-0.7841515	0.8078894	-0.71250314	0.5026867	-0.5716512	-0.110678695	0.55926806	0.11649604	-0.6332382
-0.9203667	-0.2778341	-0.8843057	-0.26896283	0.7507223	-0.743582	-0.7136329	-0.65157574	-0.023238214	-0.23396389	-0.4743574	-0.19701451	0.97467864	0.27534717	0.463312	-0.44804522
0.31712788	-0.7086361	0.6010398	-0.32537985	-0.41716203	-0.37855637	-0.2110546	-0.3718899	0.69071215	-0.55330956	0.44197866	-0.5312563	-0.071676254	0.51154995	0.2810827	-0.5173811
-0.039293345	0.17078748	-0.032666195	0.060956977	0.13619868	0.11267548	0.10405497	0.20944625	-0.30562523	0.23796844	-0.09083888	0.24498434	-0.14339973	-0.21899897	-0.24329652	0.22551978
-0.5195593	-0.35992965	0.4157623	-0.8880007	0.69718206	0.15311725	-0.2828712	0.7475686	-0.36351064	0.2159973	-0.050126348	0.115313224	-0.23203517	-0.1707775	-0.10730072	-0.07926024
0.07697694	0.11244729	-0.052713156	0.23009141	-0.09511222	-0.050575048	0.09760367	-0.104975335	0.0038696036	0.006723366	0.067927286	0.0052054874	-0.051731404	-0.04651911	0.037217632	0.045670554
0.29276946	0.25970253	0.33423057	-0.15103069	-0.13832651	0.45649236	0.417281	0.41710842	-0.31823686	0.3432615	0.29123476	0.13343374	-0.5692044	-0.1605307	-0.32396048	0.34012893
-0.23707977	-0.0981588	-0.3544341	0.20116004	0.25888664	-0.27926084	-0.11189992	-0.3129915	-0.031113775	-0.060299013	-0.3236543	0.087536186	0.43840876	-0.050736904	-0.008992716	-0.045216065
-0.6756509	0.24738576	-1.0479745	0.5980659	0.5340538	-0.69566673	-0.29943293	-0.99258643	-0.11662535	0.06432189	-0.65800744	0.23233242	0.8836326	-0.21786317	-0.069767594	-0.12972665
0.11976686	-0.23113312	0.23290722	-0.12162872	-0.06559366	-0.07366424	0.06315103	0.040715944	0.14969745	-0.06682673	0.08395441	-0.13127428	-0.10509802	0.108676635	-0.092728674	-0.088223495
0.35006663	0.30562884	-0.20348655	0.50625336	-0.48153597	0.015707389	0.36087435	-0.35585025	0.08353075	0.04032074	0.25868243	-0.10841277	-0.09654796	0.08841704	-0.13485295	0.2260213
0.9738627	-0.8891545	1.1644099	0.4482869	-0.9918556	-0.541147	0.70766497	-0.71300447	0.9320845	-0.79056776	0.9112923	-0.809736	-0.82896614	0.83577365	-0.0026136467	-0.5950382
-0.9186649	0.54383993	-0.84050936	0.9765726	0.78928006	-0.6222936	-0.143153	-0.53001904	-0.56488234	0.58458877	-1.010223	0.82811725	1.0279307	-0.81479025	-0.52459747	0.5302546
0.21411376	-0.07624806	0.09477902	-0.05715521	-0.27557766	-0.035766196	0.025740394	-0.20267421	0.22224905	-0.122240394	0.31583104	-0.2709883	-0.057611864	0.29996398	0.054873485	-0.0947987
0.095781684	-0.14098118	0.39287308	-0.4590452	0.07615912	0.18962945	0.019379526	0.3464733	-0.03723416	0.10893561	0.1727866	0.041847628	-0.3403514	-0.028104262	-0.17463318	0.015991822
0.31031305	-0.19259897	0.46798274	-0.13036245	-0.25150725	0.14477621	0.21905315	0.08101032	0.1187841	-0.03164965	0.26626223	-0.13801518	-0.33259225	0.10375019	-0.15715042	0.034399707
-0.048548453	-0.5129059	0.45897174	-0.12884817	0.019576782	-0.22368078	-0.09222701	0.00010017911	0.29842898	-0.1166187	-0.015032302	-0.052289803	0.058265828	0.021140946	-0.22301643	-0.13056394
-0.42117774	-0.3388307	-0.25539792	-0.09195486	0.326745	-0.46340144	-0.45662835	-0.31068385	0.21156265	-0.1531369	-0.37330645	-0.07683994	0.61551243	0.04830341	0.14562084	-0.27308875
0.3049162	0.13996711	-0.08180336	0.23360085	-0.32599205	0.046369027	0.221705	-0.14430724	0.07150293	-0.027734064	0.27940908	-0.0679872	-0.21660388	0.13449214	-0.0070708897	0.05760404
-0.032650016	0.04817831	-0.0035941931	0.1654974	0.059797417	0.046441868	0.14042506	0.075343445	-0.12873483	0.2225354	-0.20687589	0.16198958	0.05098139	-0.19692944	-0.3679602	0.23639543
-0.50486904	0.24947144	-1.0293702	0.6401691	0.24041341	-0.64554065	-0.27195325	-1.0192991	-0.15497404	0.07310014	-0.5640543	0.16407388	0.7814243	-0.19363289	-0.050725292	-0.07641642
-0.01204338	0.097540826	0.2319726	0.23556027	0.080143705	0.14691429	0.26211435	0.25088537	-0.19728741	0.29834482	-0.114035994	0.25186303	-0.025709169	-0.33596954	-0.39506006	0.36476815
0.54414445	-0.55483055	0.5979225	0.044311557	-0.5836541	-0.4684059	0.12011279	-0.5072556	0.68988615	-0.5910503	0.43898928	-0.43609682	-0.20284082	0.4551959	0.13382164	-0.3940383
1.1337616	-0.8634815	1.0928423	0.73200774	-1.111667	-0.7717137	0.7246218	-1.055801	1.0855563	-0.9332311	1.0708764	-0.89862156	-0.73933494	0.91063863	0.17970927	-0.7516576
-0.123722605	-0.06107353	-0.40562576	0.27504003	0.031061487	-0.41081047	-0.112084195	-0.4870776	0.13319083	-0.045220684	-0.27282676	0.03196124	0.38728672	-0.010323015	-0.023065507	-0.11374548
0.018533725	-0.25814685	-0.055161376	-0.17165679	-0.08142073	-0.2137965	-0.26582813	-0.22185926	0.254499	-0.27638873	0.22228083	-0.31039888	-0.015394226	0.34481663	0.22977103	-0.2916686
-0.20372292	0.021514652	-0.55540055	0.05244321	0.10057724	-0.34001935	-0.23849003	-0.4227228	0.01043308	-0.015678082	-0.13895795	-0.12796062	0.3190381	0.099919334	0.09805691	-0.1583243
1.011506	0.81085855	0.12662247	0.40324506	-1.0126871	0.6483127	0.885935	0.20538265	-0.3311607	0.45727533	0.95461553	-0.3807398	-0.7928345	0.26531878	-0.4803261	0.6835979
-0.104677886	-0.22067285	-0.3161141	0.036231045	0.093715705	-0.42827728	-0.27768853	-0.45216966	0.29614547	-0.31440923	-0.0143423	-0.20360859	0.322562	0.24833904	0.16793744	-0.31351537
0.712533	-0.5179538	0.61704296	-0.10533511	-0.7145526	-0.31775966	0.11251142	-0.5111158	0.76318175	-0.58520156	0.896586	-0.70521724	-0.3841729	0.80229366	0.26857802	-0.4355678
-0.09026896	0.020408077	-0.4609088	-0.14391151	0.08014287	-0.27312312	-0.30964422	-0.2894644	-0.04796974	-0.18013643	0.09468351	-0.25422904	0.18113649	0.26942337	0.2768812	-0.24786575
0.14450756	0.14101756	0.015200759	0.22633828	-0.21171898	0.10794661	0.1689535	-0.011464374	-0.0059950445	0.122525014	0.052374087	0.07102115	-0.08967512	-0.09352852	-0.1941684	0.13872823
0.85976917	-0.35618198	0.7485333	0.5957897	-0.90302527	-0.03902261	0.77711517	-0.37127006	0.5839976	-0.41181067	0.6593896	-0.46062493	-0.57190925	0.39961463	-0.112072125	-0.09786981
0.53671384	0.4295545	0.13218322	0.06866989	-0.37315473	0.462296	0.52893996	0.3223499	-0.33565202	0.32627493	0.5727448	0.06425834	-0.6533115	-0.13617232	-0.34190893	0.4206841
0.0949402	-0.63318104	0.26087397	-0.41277832	-0.1645132	-0.39290997	-0.30096382	-0.28499725	0.48024088	-0.3884202	0.28439897	-0.39729398	0.07553258	0.37827754	0.27553383	-0.47307867
0.13621056	0.07626321	-0.27724504	0.28822997	-0.21300656	-0.12127803	0.04437849	-0.3407031	0.095973246	0.0015374164	0.03811902	0.0016362064	0.062467903	0.063415416	-0.014767425	-0.021123078
0.3376451	0.17658271	0.2805975	0.0048383228	-0.31609187	0.39082873	0.39163357	0.32495457	-0.21684472	0.35022452	0.31107143	-0.01034967	-0.51132727	-0.063114814	-0.34039468	0.3662744
-1.4197985	-0.25481766	0.97966117	-1.1382238	1.4294301	0.6449837	-0.012491054	1.1897326	-0.85039246	0.95474374	-1.1774218	1.0987897	-0.102393985	-1.1593807	-0.9393968	0.7185284
-0.2680069	0.04695608	-0.15930337	-0.1134257	0.35623607	0.019229941	-0.07058061	0.16983393	-0.25590885	0.18973853	-0.18608832	0.13144533	0.06431234	-0.1259744	-0.15802608	0.056081183
-0.38299707	0.39573482	-0.7145214	0.6380094	0.19651964	-0.31637245	-0.013102599	-0.60064507	-0.15384008	0.16654932	-0.41575944	0.3546568	0.50925434	-0.3204998	-0.14372757	0.18800892
-0.7735077	-0.39582258	-0.3664615	-0.47156492	0.72753507	-0.25805238	-0.50423115	0.15294395	-0.16492306	-0.084736556	-0.34773758	-0.07008186	0.44962305	0.048008207	0.21696815	-0.298723
-0.40522617	0.48728886	-0.7935097	0.7461889	0.23750897	-0.2403892	0.14302242	-0.43640417	-0.3405821	0.44499034	-0.5303274	0.35262424	0.5376254	-0.46414414	-0.42827678	0.37281004
0.3581787	-0.43582588	0.30640817	0.13964903	-0.3506712	-0.4514155	-0.058639962	-0.5653092	0.56256324	-0.43758127	0.23490521	-0.36872736	0.020871302	0.30818972	0.15137225	-0.28437403
0.15368702	-0.2369091	0.20429817	-0.12159286	-0.23816946	-0.12994738	0.010685488	-0.18091269	0.33550063	-0.16431747	0.21672834	-0.3314017	-0.008541256	0.30251688	0.053426385	-0.20800278
0.012957245	-0.050837953	-0.21304713	0.47950894	-0.12515196	-0.30345193	-0.051584974	-0.46051338	0.20757519	-0.17370297	-0.123128705	0.02934459	0.29028654	0.028235426	0.04457222	-0.15204743
0.10299392	-0.513097	-0.2433074	-0.32401744	-0.08797111	-0.5867321	-0.5242638	-0.74848527	0.6252359	-0.64501196	0.440688	-0.68879634	0.26730046	0.7275824	0.58865917	-0.70404595
0.09430324	0.10439857	-0.19442752	-0.28738624	0.037032675	0.11440681	-0.013674178	0.10467301	-0.18507834	0.0132230045	0.27093035	-0.13983119	-0.19996372	0.18575266	0.0681386	-0.020855946
0.025222074	-0.21061069	-0.4435945	0.066755384	-0.08490365	-0.45183876	-0.25080165	-0.7364014	0.34062797	-0.33168384	0.120781235	-0.3207797	0.36604863	0.28958827	0.19522598	-0.30538312
-0.69828194	-0.5440572	-0.44039044	-0.655802	0.7221181	-0.50065297	-0.71571034	-0.1781018	0.099075936	-0.38270837	0.003478364	-0.45983547	0.6166172	0.45109737	0.44732106	-0.4935848
-0.5195747	-0.21951044	-0.62238073	-0.13772872	0.52356625	-0.43080986	-0.41789097	-0.40944338	0.07490168	-0.14795583	-0.27301997	-0.15153594	0.55406153	0.14307825	0.27132767	-0.29805237
-0.10068622	0.40805632	-0.30165535	0.3266103	-0.009064622	0.19185604	0.28104514	0.008680254	-0.3760698	0.3394111	-0.07836952	0.2033238	0.018077863	-0.2467363	-0.3096455	0.2816525
-0.8048588	-0.4381263	-0.20667641	-0.59227294	0.783688	-0.37387103	-0.65312433	0.18440604	-0.08497124	-0.08435567	-0.3884121	-0.10771138	0.46258616	0.110826515	0.2873741	-0.43336654
1.098382	-0.78064704	1.0528579	0.9663096	-1.048821	-0.46856445	1.0027993	-0.91884494	0.94450027	-0.7503503	1.0266111	-0.79562205	-0.9613336	0.7471257	-0.25777912	-0.3630524
0.07834138	0.16953574	-0.3316772	0.25134835	-0.10951517	-0.10970437	-0.002165809	-0.3141445	0.0022692166	0.034135763	0.0015355871	-0.06004386	0.086493626	0.08580107	-0.017438749	-0.053521607
-0.038371377	0.29514834	0.5147475	-0.76339966	0.37721813	0.69259036	0.355507	1.0097467	-0.7066681	0.7031261	0.23161937	0.4210867	-0.64347804	-0.5442741	-0.53839576	0.53222847
0.19508943	0.00706413	0.20944622	0.09430927	-0.24753404	0.111466035	0.21032016	-0.018264847	0.10548317	0.023383304	0.15957984	-0.07298734	-0.15814893	-0.0056096935	-0.16811608	0.12898673
-0.092934616	0.48990977	-0.49977604	0.52558184	-0.02433589	0.024263594	0.16297115	-0.28588438	-0.3061874	0.30209213	-0.22159018	0.20688504	0.16002306	-0.2080755	-0.19329448	0.2720566
-0.428376	0.6897918	-1.0195558	1.1397637	0.21488194	-0.44480115	0.15435627	-0.9668649	-0.4131997	0.442626	-0.73248875	0.6253482	0.7354573	-0.625128	-0.4636218	0.4518073
1.0861526	0.82229215	0.56593597	-0.022969443	-1.0048671	0.8724872	1.051159	0.60147476	-0.624414	0.76466185	1.1810046	-0.25650606	-0.98663664	0.07633835	-0.8266577	0.80999446
-0.50431865	-0.488637	-0.12597594	-0.40608168	0.5448317	-0.42170858	-0.5707975	-0.08750344	0.159537	-0.292997	-0.33971524	-0.08294386	0.47190607	0.17643473	0.28950801	-0.40245044
0.25447512	-0.22028576	-0.0490183	-0.22653206	-0.34288257	-0.20641142	-0.22510399	-0.30698168	0.40580902	-0.2984606	0.43455547	-0.47709078	0.002827598	0.41964447	0.26906306	-0.31027454
0.42559782	-0.3418051	0.58308923	0.20327535	-0.40617463	-0.07547331	0.3023744	-0.16137485	0.4188221	-0.24507342	0.22242777	-0.20388892	-0.21111652	0.21478288	-0.16730547	-0.06570049
0.06330997	0.12952983	-0.23761676	0.14680538	-0.071315594	-0.013381398	0.049583033	-0.091349356	0.07064343	0.012098714	0.057464197	-0.121471815	-0.00806258	0.11603659	0.038320545	0.03593458
0.3504716	0.049192224	-0.15587153	-0.20338635	-0.29135585	0.023624891	0.042722497	-0.09529095	0.036866322	-0.04535404	0.4905117	-0.4623437	-0.22254162	0.42989627	0.12148135	-0.06615542
-0.13834478	-0.2838483	-0.19119503	-0.31962258	0.15423815	-0.21967563	-0.27427545	-0.14362685	0.16684306	-0.20766558	0.106057905	-0.26895016	0.17767191	0.30934656	0.261246	-0.33006346
0.51023555	0.90243137	0.28797674	0.2034203	-0.37932995	0.79023093	0.91663283	0.5988141	-0.83841276	0.8372593	0.45658633	0.29668382	-0.75362146	-0.47002143	-0.8261169	0.91300744
-0.38851616	0.44961578	-0.86019254	0.5844459	0.18493603	-0.23032665	-0.097376145	-0.56849617	-0.25763243	0.18421724	-0.43190247	0.22124177	0.46692333	-0.25015604	-0.076065436	0.08437967
0.29907376	0.08723528	0.9763647	-0.17125966	-0.08521895	0.58932894	0.74414283	0.54197854	-0.17639604	0.33230036	0.30760306	0.21834452	-0.73838574	-0.27146763	-0.61017334	0.4841585
-0.5464222	0.15912655	-1.0056465	0.92648005	0.22968528	-0.87178314	-0.3719694	-1.106967	0.14740573	-0.018803218	-0.72662735	0.2805217	0.91819507	-0.20979093	-0.07339691	-0.15262736
-0.89405423	0.58534896	-1.1525996	1.0175176	0.67852724	-0.7687433	-0.40270633	-0.9634198	-0.38226768	0.3203206	-0.9364833	0.64976853	1.0216396	-0.6949311	-0.24496856	0.11096765
1.0208659	0.90326595	0.5775284	0.23598059	-0.8646692	0.9173416	1.1150194	0.7239455	-0.7003928	0.7895023	0.90922964	0.19961977	-1.0939413	-0.38749495	-0.82699317	0.9201709
-0.27281085	0.20345283	-0.69461673	0.72255456	0.18602176	-0.6135281	-0.3334414	-0.76518875	0.17215918	-0.1833322	-0.50577915	0.11957798	0.5711945	-0.034905855	0.2589376	-0.28902107
-0.5313635	-0.07418682	-0.27680632	0.15325311	0.47923347	-0.30723062	-0.3015392	-0.16681826	-0.03464964	0.076855615	-0.4550146	0.23942539	0.5192786	-0.28799954	-0.1776488	-0.039979957
-0.29627633	0.08401302	-0.40485638	0.5310832	0.08901674	-0.33497047	-0.004875211	-0.49460313	0.04455296	0.08639517	-0.42217758	0.29928532	0.5715357	-0.21896535	-0.20579615	0.11518609
-0.32115552	0.3763954	-0.68731654	0.45363274	0.31977522	-0.16987866	-0.08336379	-0.36254248	-0.28723747	0.20747264	-0.38875934	0.23658995	0.35059378	-0.298533	-0.14250447	0.071442485
0.14554122	-0.3292132	0.30868953	-0.12096086	-0.07634967	-0.07087005	-0.011422818	-0.084844455	0.19124903	-0.14954759	0.20250669	-0.14413723	-0.09317194	0.17413071	0.040088426	-0.13302349
-0.6903425	-0.64052325	-0.2923854	-1.0964643	0.69756246	-0.3897639	-0.71497273	0.07105698	0.14801337	-0.38487068	0.16588795	-0.48122346	0.40628618	0.5090074	0.50673085	-0.5667929
0.4661876	-0.75132763	0.94231904	-0.10406387	-0.43162343	-0.39735138	0.16769372	-0.21829733	0.63173604	-0.42591563	0.37734672	-0.3659193	-0.36035767	0.37409854	-0.016479226	-0.3946554
0.36271578	-0.75656664	0.7832671	-0.1335935	-0.33577132	-0.40210724	-0.048761275	-0.2837	0.6371679	-0.42452082	0.41268522	-0.4628926	-0.18518221	0.42083836	0.0013565244	-0.41067317
0.20542967	-0.87044495	0.94988257	-0.35276482	-0.14930443	-0.41617864	-0.19025928	-0.047895502	0.53240556	-0.437306	0.2317659	-0.31505945	-0.20731767	0.32744908	-0.025338681	-0.46385276
-0.5289417	-0.028571332	-0.25531	0.019896496	0.5093719	-0.2350973	-0.19019206	0.0019442429	-0.24351686	0.2163161	-0.48651898	0.2577391	0.43233538	-0.24646685	-0.116836414	-0.015359172
0.43982095	-0.3956095	0.46227908	-0.14490451	-0.35514566	-0.12791516	0.14495043	-0.17795329	0.41191262	-0.20836556	0.44237965	-0.28450036	-0.24440666	0.2980801	-0.01626971	-0.18104681
0.1360437	-0.18250291	-0.08673687	0.034151845	-0.28541633	-0.22272372	-0.047700856	-0.3637571	0.27004847	-0.26657632	0.17870843	-0.25505906	0.07609668	0.20267202	0.110112846	-0.15712322
0.3189863	0.06907333	-0.046705596	-0.021313116	-0.23447324	0.10407787	0.15123437	-0.0398351	0.07644493	0.05768789	0.34016347	-0.18686983	-0.29520142	0.09678094	-0.0017229394	0.026500273
0.29997534	-0.005768896	0.09160068	-0.21148208	-0.23586027	0.11854013	0.11023447	-0.026551632	0.092730075	-0.055307724	0.34667915	-0.30615017	-0.2704701	0.25474855	0.04379185	-0.05125207
-0.38271993	-0.20669167	-0.0532613	0.19795802	0.35552722	-0.37863863	-0.2593613	-0.12879236	0.14894687	0.018754205	-0.44239146	0.14281185	0.5024584	-0.18584466	-0.11398846	-0.082549326
0.5772095	-0.48369527	0.41067946	-0.13328068	-0.49312323	-0.37877777	-0.13547999	-0.54409343	0.69939387	-0.529024	0.6149285	-0.58483505	-0.1848647	0.66506	0.26154345	-0.44286218
0.3961972	0.71096706	-0.43265858	0.6273507	-0.50826174	0.27664474	0.5691716	-0.2607622	-0.37871256	0.39691612	0.13324001	-0.0070897453	-0.2589293	-0.009401659	-0.41174743	0.46023652
-0.1270161	-0.47336075	0.49278632	-0.5658454	0.19132693	-0.13327257	-0.28199917	0.24335653	0.2170037	-0.13406605	0.09812907	-0.09612507	-0.068121836	0.12827882	0.07049259	-0.23490928
-1.1873449	-0.7588497	-0.67434746	-0.9046434	1.087997	-0.68907624	-0.927943	-0.04482296	0.011376173	-0.4180965	-0.39483383	-0.4545449	0.9304314	0.45327368	0.578179	-0.7393671
-0.03267711	0.28815517	-0.41781354	0.36271137	-0.033498343	-0.029340712	0.11777593	-0.29271317	-0.16475436	0.22255147	-0.09519316	0.09822152	0.14015117	-0.14797902	-0.17873752	0.15655112
0.24699156	0.25364503	-0.38771272	0.09943944	-0.25612396	0.06545063	0.045655537	-0.24174874	-0.060284384	0.03281795	0.32017955	-0.13050447	-0.0721931	0.12881546	0.07338469	0.05189816
-1.2031999	-0.8827835	-0.8061952	-1.1724585	1.1586021	-0.8317416	-1.0920033	-0.47292173	0.46515176	-0.67078954	-0.008103022	-0.7900571	0.968054	0.83100283	0.8044351	-0.9440597
0.19179076	0.09820421	-0.3207129	0.14745227	-0.28863096	-0.015148039	0.08411198	-0.44048882	0.14846116	-0.10555785	0.27707627	-0.3022234	-0.0837943	0.26334435	0.097139	-0.012417999
0.4569868	-0.39802265	0.69851416	0.096153796	-0.35935047	-0.08993297	0.31348997	-0.1376097	0.41387597	-0.27748734	0.3979801	-0.27877206	-0.42890888	0.25122175	-0.087764695	-0.17245983
-0.52526987	-0.32444483	0.028343285	-0.73050123	0.6214111	-0.04059839	-0.3101731	0.33458903	-0.28205234	0.12525706	-0.16249122	-0.021984266	0.08977217	-0.044405732	0.038862277	-0.15454933
0.018561209	0.46777502	-0.3367355	0.4745623	-0.1166256	0.20535961	0.31590232	-0.022869252	-0.31544605	0.3975156	-0.06729158	0.28143564	-0.11453172	-0.26407877	-0.40094322	0.32872006
-1.0505764	-0.25059542	0.96533936	-0.91265845	1.120091	0.49838072	-0.029147895	1.0159305	-0.77722734	0.81488514	-0.9164148	0.9407766	-0.1538224	-0.98328084	-0.7844552	0.4876288
-0.42633945	-0.18560028	-0.54503924	-0.23762989	0.35802296	-0.3728278	-0.38382128	-0.3577486	0.11831722	-0.24789082	-0.025897728	-0.28765786	0.37402526	0.30763182	0.25741297	-0.3759619
0.07722872	0.27046022	0.08538643	-0.041038103	-0.036179855	0.35541537	0.33798513	0.40508258	-0.40742204	0.35107794	0.09531693	0.1680807	-0.39269578	-0.22191855	-0.2622055	0.29105344
0.14441437	0.3159367	0.011390724	-0.022579085	-0.018296573	0.31447804	0.29074836	0.35678592	-0.43206787	0.38768834	0.1269962	0.10367301	-0.29760563	-0.18144533	-0.22592255	0.27499142
-0.46081337	-0.3303023	-0.069749504	-0.015087407	0.44491023	-0.24576813	-0.2412586	-0.04723435	-0.0019763715	0.03963214	-0.45891574	0.2295191	0.3943445	-0.20669076	-0.14896896	-0.12621593
-0.15161557	-0.5375168	-0.16861455	-1.0599129	0.27420053	-0.30512828	-0.5337077	-0.12671185	0.37125552	-0.4550611	0.88673717	-0.75960046	0.11797464	0.7532713	0.57787377	-0.567055
0.3610076	0.051636104	0.45192367	0.12557016	-0.32609692	0.26598838	0.3933269	0.12492363	-0.021011056	0.029972063	0.2955274	0.03625931	-0.36591813	-0.048129477	-0.23789398	0.21706824
1.0825919	1.0097893	0.44741732	0.28939128	-1.1048757	0.9668508	1.1085137	0.6080102	-0.7676513	0.8914248	1.0919735	-0.29227504	-1.0049757	0.025329418	-0.8163894	1.0078932
0.6614715	-0.39887345	0.65126354	0.6325191	-0.62202835	-0.33944374	0.48885202	-0.49604148	0.5458302	-0.40409318	0.39041358	-0.2793325	-0.38295412	0.351215	-0.08909096	-0.2152792
0.22965789	0.2491522	-0.31763577	0.50709814	-0.2856924	-0.058024824	0.20436756	-0.46417022	0.112376936	0.05341635	-0.010881774	0.0044160928	0.044219185	-0.0054459637	-0.09287947	0.12603207
-0.2631669	-0.34591618	0.3328776	-0.15081698	0.40105832	-0.025031101	-0.087575674	0.2549059	-0.011123483	0.06262949	-0.3025269	0.2617069	-0.032338873	-0.28183475	-0.23461476	-0.044764996
-0.40785083	-0.2915017	-0.03973553	-0.47122532	0.33945483	-0.11445612	-0.32634366	0.075047195	-0.07486123	-0.05630099	-0.07043202	-0.10945	0.13228104	0.019507097	0.07407569	-0.14281306
-0.33966872	-0.21183155	-0.45157015	0.19680963	0.34257838	-0.5277301	-0.42664585	-0.43234095	0.17520721	-0.27759022	-0.37433133	-0.026741311	0.5829324	0.11120466	0.15657553	-0.38708186
0.00011971482	0.33605853	0.62860197	-0.4724324	0.34127718	0.65873086	0.57888055	0.8611052	-0.77884895	0.8041663	0.05882634	0.61750555	-0.5756718	-0.75334305	-0.83831084	0.6647608
-0.22537531	-0.045752574	-0.29357588	0.1692026	0.23917946	-0.27887726	-0.22730348	-0.23545794	-0.016068228	0.012720304	-0.18953589	0.03640046	0.22921312	-0.037267603	0.013106635	-0.048538446
-0.6125148	-0.9293786	0.23369563	-0.98586166	0.67711896	-0.5572478	-0.79186636	0.07422055	0.3036105	-0.45413193	-0.10225581	-0.27357385	0.53832865	0.35023254	0.37982568	-0.6493683
0.7345115	0.54521924	0.4601274	-0.30986586	-0.574046	0.75879353	0.7993672	0.6317805	-0.56527466	0.618508	0.6858988	0.011903836	-0.84638953	-0.2361724	-0.6310258	0.59225017
0.52109647	0.1832514	0.056666218	0.43224207	-0.5368967	0.14820178	0.43088993	-0.20024306	0.16914538	0.03412333	0.3743644	-0.16657783	-0.3404001	0.1563112	-0.15100852	0.1880829
-0.95329136	0.6515511	-0.70823014	0.85853237	0.8212128	-0.28722167	0.016175611	-0.20282647	-0.6371108	0.57439053	-1.0211942	0.8942258	0.84558475	-0.94455975	-0.52274853	0.502876
-0.37018722	-0.08456328	1.1368252	-0.7994305	0.5674501	0.5176183	0.3271126	0.84114224	-0.3378672	0.47121122	-0.33841237	0.62977695	-0.3663851	-0.635164	-0.7056541	0.47722226
-0.25475988	-0.028077826	-0.6297068	0.28337514	0.18748699	-0.40856925	-0.27286273	-0.50690806	0.12243723	-0.08734315	-0.22188427	-0.069652185	0.4191601	0.022797212	0.0985473	-0.1451715
-0.236138	0.093180254	-0.8392089	0.066316485	0.22241686	-0.3596549	-0.30439967	-0.503573	0.01694602	-0.1430936	-0.12494103	-0.11973287	0.3587299	0.15503602	0.19860569	-0.15230039
-0.096234135	0.36312002	-0.7159233	0.1878661	0.13865094	-0.13255231	-0.16299984	-0.2927077	-0.37381837	0.10351896	0.060392674	0.030706298	0.058959644	-0.03916339	0.09577682	-0.041955777
-0.5758545	-0.63466257	-0.1169408	-0.80935526	0.584596	-0.42202258	-0.5677151	0.0039039906	0.22087412	-0.36685959	0.06533372	-0.43508175	0.35969818	0.46798104	0.38621324	-0.5835238
-0.5092371	0.25601482	-0.83419645	0.5782984	0.39892718	-0.6022369	-0.2225608	-0.8264907	-0.16976292	0.16070555	-0.54989517	0.2688322	0.70730853	-0.30378762	-0.19695729	0.05293694
0.62093264	-0.68960863	0.7391974	0.25884318	-0.64722186	-0.572659	0.18098451	-0.6409896	0.70084	-0.6391787	0.6274635	-0.6603263	-0.3678783	0.64616907	0.103387825	-0.50458694
0.004826461	-0.11286855	0.20378263	-0.5086756	0.18365902	0.104905546	-0.109212555	0.29428938	-0.08811096	0.002101879	0.33183938	-0.22358875	-0.28036988	0.16626827	0.06646591	-0.12370854
-0.31723452	-0.092166916	-0.10628912	-0.16607296	0.34760326	-0.03594858	-0.19806358	0.16372526	-0.15151107	0.111512624	-0.18975498	0.06622608	0.09242922	-0.033101257	-0.070491575	-0.0037863557
-0.1297087	-0.26357946	-0.15065601	0.38128248	0.037656743	-0.42265275	-0.20459646	-0.35656023	0.30194992	-0.21023628	-0.2895395	0.02713853	0.42976442	-0.019680727	-0.0140454015	-0.21867806
-0.62055564	-0.58813703	-0.55443174	-0.6432682	0.55785686	-0.5777363	-0.700057	-0.4499024	0.38613385	-0.5358989	0.17556554	-0.5798013	0.61576176	0.6498663	0.4906405	-0.63176304
-0.023449507	-0.41932058	0.2984595	-0.4060413	0.1285747	-0.034761913	-0.08150659	0.21559022	0.09490491	-0.098334014	-0.0004793817	-0.09341679	-0.1221424	0.06505956	0.027335443	-0.18430915
-1.3879735	-0.44694406	1.0972898	-1.2545973	1.4775139	0.6292674	-0.06256735	1.3790458	-0.9465997	0.98479986	-1.1477734	1.1085902	-0.034200337	-1.1631879	-1.151437	0.75882214
1.1790428	1.0582013	0.5853647	0.02269246	-1.1790067	0.9676486	1.1562103	0.5583605	-0.5128424	0.7175104	1.2341111	-0.5239657	-1.0340881	0.40673128	-0.7794493	0.9008237
-0.20184864	0.0043028044	0.09176229	-0.011961205	0.2986295	0.037711073	0.023850884	0.19992244	-0.1513783	0.17245479	-0.291765	0.26487437	0.044601854	-0.2697724	-0.27066326	0.11749526
-0.29798862	0.21344495	-0.33983827	0.2973769	0.3382756	-0.09865118	0.056897793	-0.026128188	-0.2831575	0.2893838	-0.40654987	0.29027143	0.29956132	-0.31203967	-0.19057372	0.23973998
-0.012087703	0.08637832	-0.41122374	-0.17096113	-0.02448239	-0.04705105	-0.08841918	-0.15135458	0.0021560993	-0.11289592	0.3033581	-0.36194783	0.048717164	0.28955385	0.20633161	-0.16633902
0.24836186	0.11188806	-0.21301395	0.7737002	-0.3851439	-0.41141343	0.20358537	-0.8902512	0.2835049	-0.10307281	-0.16419883	0.072897896	0.3504706	-0.011768005	-0.21649697	0.15626386
-0.07780581	0.014293218	0.156993	-0.18405683	0.19585049	0.25408304	0.20364133	0.4051149	-0.24828619	0.30433506	-0.08254965	0.2162845	-0.1669406	-0.21133362	-0.2865204	0.23231898
-0.060249113	0.9508903	-0.57272637	1.0573467	-0.048592914	0.08690464	0.30188712	-0.263342	-0.64855695	0.48194414	-0.21074045	0.56247777	0.055244807	-0.60181695	-0.28963748	0.46897504
-0.24467275	-0.18554303	-0.09055511	-0.13574314	0.18692745	-0.08873365	-0.16827837	0.006410899	0.010113432	0.0072140116	-0.08100423	-0.05878961	0.1822089	0.017960558	-0.04354794	-0.08012569
-0.6635701	-0.35759413	-0.62494916	-0.65119237	0.7015123	-0.40293258	-0.60462505	-0.21629186	0.124667466	-0.31881896	0.13139121	-0.4349863	0.45112228	0.5053638	0.5035367	-0.53224367
-0.158207	-0.2066868	-0.009950211	0.0691488	0.1546942	-0.36173612	-0.17541324	-0.18799339	0.13301317	-0.076270275	-0.23713547	0.051222537	0.45300224	-0.07285253	-0.07808519	-0.13326922
-0.12678026	-0.12695637	-0.4812995	-0.52642643	0.18412459	-0.07655928	-0.26074642	-0.0023067908	-0.048307285	-0.1888355	0.51003176	-0.43098018	-0.030999035	0.36845043	0.28658298	-0.24157652
0.23714645	-0.08620452	0.1136917	0.05645835	-0.25825468	-0.082778655	0.082755536	-0.26050955	0.23282646	-0.17095707	0.19325317	-0.14420998	-0.12189227	0.20138305	0.08575487	-0.13205796
-0.39665598	0.3092188	-0.82247716	0.30947626	0.279828	-0.16541713	-0.115242675	-0.35497326	-0.35574046	0.2174718	-0.41525096	0.24132726	0.30641288	-0.19519827	-0.032080226	0.030217139
-0.60330814	-0.14607088	-0.32085875	-0.20943452	0.57973444	-0.29098207	-0.33443946	-0.013773775	-0.027766498	-0.026888186	-0.16499142	-0.10053366	0.2994656	0.1364385	0.14364475	-0.2742603
-0.49955922	-0.37163338	-0.40107563	-0.19819291	0.3450577	-0.59515345	-0.5502162	-0.4744678	0.285953	-0.27078834	-0.20046009	-0.20328842	0.60232025	0.22658463	0.25911164	-0.44787017
0.042437647	0.17904188	-0.38622367	-0.022865804	0.06095585	-0.10503132	-0.1177092	-0.13280526	-0.16521537	0.046056226	0.091880426	-0.07717067	0.020315021	0.06693527	0.18006386	-0.02397141
0.051002212	0.39920744	0.08569334	0.24320157	0.023094319	0.38756934	0.42996883	0.3338177	-0.35863173	0.3825666	-0.014514626	0.29092935	-0.249928	-0.3218572	-0.40747446	0.46845376
-0.7997626	-0.23693416	0.34513035	-0.5605261	0.8720077	0.2046967	-0.20833655	0.7448851	-0.5136163	0.5149053	-0.55867076	0.5810538	0.005204419	-0.61492807	-0.40837258	0.22596015
0.582158	0.58515143	0.027701449	-0.029628398	-0.60723096	0.40872023	0.5012822	0.22390582	-0.40530142	0.4274681	0.65844184	-0.07189434	-0.60197574	0.048875544	-0.29986432	0.41210604
0.35797945	-0.22701018	0.37751153	-0.08937622	-0.32281905	-0.02157162	0.11827283	-0.04371958	0.2796109	-0.12088926	0.41069886	-0.22344863	-0.2545601	0.24564795	-0.07599725	-0.091398954
-0.35263374	0.30394736	-0.31564075	0.43933654	0.35776544	0.005048958	0.19702944	0.048268877	-0.35565406	0.4029758	-0.515259	0.488605	0.2936337	-0.46643618	-0.36739734	0.38305798
-0.049032994	0.014288894	0.15113458	0.16717368	0.043842033	0.105681516	0.19686235	0.14310329	-0.059869375	0.18804425	-0.16712616	0.18409795	0.03864624	-0.19501655	-0.25615665	0.16368267
-0.039127156	0.015910089	-0.20306191	0.43292677	0.0060831453	-0.29922774	-0.11517093	-0.40855354	0.09496972	-0.043215673	-0.20605026	0.18132791	0.2887803	-0.104356684	-0.11645338	-0.06893475
-0.8183562	-0.29082143	0.96783745	-1.1560532	0.9361891	0.6479035	0.06651427	1.1625655	-0.7899704	0.8535228	-0.556815	0.8102714	-0.4399625	-0.844252	-0.76699615	0.50250375
-0.3464566	0.28236032	-0.5297204	0.433987	0.27668312	-0.21303321	-0.05632435	-0.3097416	-0.21215358	0.11015579	-0.3946629	0.19557185	0.4754815	-0.25224125	-0.09386716	0.104255974
1.086015	1.0238465	0.35651383	0.4420578	-1.0735859	0.9041349	1.1151618	0.5074279	-0.7261592	0.8353658	1.0477422	-0.2608257	-1.055728	0.091295	-0.81629485	1.0235821
-0.56119657	0.7940145	-1.1222969	1.2072507	0.2191185	-0.74155045	-0.065866165	-1.2113239	-0.26792946	0.23573653	-0.6852902	0.58913547	0.9557214	-0.5204738	-0.21478787	0.36284158
0.8692775	-0.77734274	0.8870258	0.071957506	-0.89197147	-0.40485662	0.24897388	-0.6560518	0.906855	-0.7236311	0.9822822	-0.8463158	-0.5034269	0.91238505	0.2759495	-0.51805335
0.07808395	0.13465501	-0.36088175	0.047020514	-0.22615756	-0.10788578	0.015255768	-0.32696378	0.16238244	-0.045471452	0.12425902	-0.20648348	0.006514339	0.26173776	0.0013669371	-0.02003995
-0.83443695	-0.3594638	-0.7975409	-0.36755082	0.728957	-0.52802896	-0.6678148	-0.4476754	0.1522602	-0.3428181	-0.21018742	-0.31138468	0.70373684	0.30798197	0.4301255	-0.49233237
0.51072115	0.82691526	-0.22719839	0.5823823	-0.64026266	0.45920455	0.65208393	0.035557255	-0.47757542	0.57952017	0.36865768	-0.0114041725	-0.41232604	0.026475094	-0.44740167	0.6139768
0.2344283	0.0737837	0.14132316	0.5634092	-0.32987332	0.05454617	0.44162574	-0.1804396	0.131115	0.038661674	0.020558951	0.106800266	-0.117715836	-0.08156398	-0.27963352	0.25743473
-0.2658015	0.07560241	-0.58386856	0.36451998	0.24413136	-0.45717424	-0.29339027	-0.612168	0.032749113	-0.09930654	-0.3607681	0.10026837	0.5235605	-0.10986583	0.032250565	-0.17372772
0.09276784	0.15484935	-0.27224332	0.5904099	-0.081962876	-0.2192199	0.15382956	-0.44942912	0.070937894	-0.006757455	-0.1932271	0.14595601	0.2922409	-0.1658813	-0.21747734	0.08310759
-0.41349018	0.0811446	0.63138205	-0.5946505	0.5247754	0.54588634	0.25892523	0.86987406	-0.70065176	0.6748902	-0.2145457	0.5882746	-0.4578984	-0.59802514	-0.5956066	0.543329
-0.9893683	-0.6319723	0.037010986	-1.0368707	1.0538195	-0.20227076	-0.6399359	0.4239518	-0.053092048	-0.15814194	-0.061293423	-0.3640948	0.33651748	0.31286788	0.37703457	-0.48276183
-0.27021685	0.035063256	-0.39640313	0.18296684	0.25288305	-0.23359548	-0.23114915	-0.20115267	-0.0884637	0.02567123	-0.21527174	0.17814377	0.23877825	-0.14189504	0.11549839	-0.12385329
-0.71133476	0.4586832	-1.0772492	0.9316794	0.5220534	-0.95195127	-0.33236232	-0.98890877	-0.2770086	0.26833838	-0.7560969	0.6035659	0.9914961	-0.5886799	-0.3471333	0.28014156
0.46917748	0.63739526	0.37178388	0.020933516	-0.3322001	0.7699422	0.78588307	0.62686485	-0.67635226	0.7830522	0.4625218	0.2818012	-0.7374092	-0.33473176	-0.7697628	0.75353473
0.38486388	0.0658856	0.44819292	-0.21265523	-0.22973152	0.3097486	0.35200095	0.33427924	-0.0807308	0.14475216	0.5232209	-0.053850945	-0.55463064	-0.015028561	-0.25590038	0.22927436
-0.10171682	-0.33911526	-0.1425121	-0.052496817	0.09388325	-0.46234554	-0.33141717	-0.34478834	0.25047407	-0.28862616	-0.018000942	-0.17928524	0.3656433	0.23839924	0.2674905	-0.3931878
0.07209922	-0.46126696	-0.04253863	-0.39053732	-0.1590865	-0.31272888	-0.3501787	-0.34973747	0.5119848	-0.40396136	0.33582303	-0.5012567	0.05248884	0.48405424	0.3469239	-0.43203956
-0.027844382	-0.5648432	0.18669271	-0.44821647	0.050072804	-0.4731151	-0.3761197	-0.18532883	0.41420567	-0.38245192	0.2315881	-0.3758417	0.16724938	0.41256297	0.36558574	-0.5069058
-0.045532268	-0.30285028	-0.18880042	-0.14290442	-0.063853025	-0.32355106	-0.31960037	-0.3820512	0.31547865	-0.29506	0.107095174	-0.3549269	0.13421883	0.31939775	0.30426484	-0.32281944
0.36495575	-0.619123	1.0441114	-0.4533816	-0.292694	0.09342722	0.2902973	0.23703335	0.38104442	-0.19742446	0.45243427	-0.20463772	-0.5531699	0.22362866	-0.12858482	-0.12284426
1.1586947	1.03927	0.47811976	0.40917382	-1.0811675	0.991033	1.1015507	0.5316398	-0.660348	0.7580604	1.0974411	-0.3145342	-1.0590456	0.19713426	-0.7908039	0.9620462
-0.14287597	0.17067248	-0.75010914	0.16284615	0.08279257	-0.253868	-0.20731275	-0.5222474	-0.021372298	-0.09138748	-0.05767141	-0.21991837	0.31931108	0.20153677	0.18135539	-0.17404139
-1.3069673	-0.26641738	1.1605852	-1.1876519	1.2915525	0.74029607	0.19421582	1.1533298	-0.81497866	0.9599365	-1.0563691	1.0084143	-0.20444673	-1.0528749	-0.97662187	0.8256565
-0.22348654	0.12811941	-0.50924456	0.23711693	0.109456226	-0.22900023	-0.10074077	-0.34521326	-0.06289199	-0.012452847	-0.21951364	-0.0028561119	0.34620863	-0.07561593	0.0065645464	-0.025812464
0.38582203	-0.33893648	0.3319907	0.4580895	-0.4087276	-0.41800237	0.3022964	-0.5426971	0.44531366	-0.237312	0.09992258	-0.13666403	0.028406342	0.12432327	-0.17825146	-0.14561951
-0.3579035	0.06711583	-0.21223228	0.04862909	0.42034543	0.004783273	-0.030382987	0.09821853	-0.3004117	0.15727083	-0.3343873	0.18127285	0.16947654	-0.17421232	-0.10979518	0.11677018
-0.730266	-0.8163375	-0.53532237	-1.0054473	0.6484116	-0.7254921	-0.9205062	-0.54868275	0.8756921	-0.8050579	0.69349533	-0.82926977	0.6581594	0.953153	0.7205745	-0.9008043
-0.6598516	0.2571666	-0.9664208	0.5055746	0.46313626	-0.6314383	-0.20870867	-0.9954961	-0.17780462	0.1271908	-0.60363466	0.21496278	0.9593766	-0.25834927	-0.02022399	-0.0255441
0.11188743	0.49368218	-0.42061433	1.0638618	-0.2791832	-0.25288525	0.57545716	-0.79780626	-0.034275323	0.1759808	-0.33300108	0.44751012	0.37001187	-0.37419394	-0.45791295	0.5121349
-0.37362316	0.08028401	-0.25673488	-0.07364323	0.3916543	-0.06276639	-0.12672162	0.023659501	-0.18544422	0.23087493	-0.24112315	0.15316772	0.13636161	-0.1368636	-0.119993754	0.023997959
-0.28043252	0.18342385	-0.601958	0.3325425	0.17401366	-0.23227601	-0.12162364	-0.43183622	-0.08294811	0.11642672	-0.2663103	0.11887019	0.42152807	-0.13855891	-0.045365356	0.032379437
0.07711523	-0.36467868	0.30378655	0.037752543	-0.08360078	-0.1566747	0.026509063	-0.073347084	0.21216324	-0.1880528	0.035809565	-0.00016187628	-0.002915749	0.054060366	-0.027658077	-0.059111085
-0.07152684	-0.19975492	0.020389395	-0.031275596	0.14156772	-0.26790658	-0.17839526	-0.13093309	0.15014158	-0.15151456	-0.061033674	-0.08487868	0.11391896	0.043361295	0.053020824	-0.22309445
0.05623772	-0.21603253	0.35979918	-0.109890506	0.0742906	0.031188514	0.029519742	0.11092619	0.056357563	0.0037908605	0.026395418	0.062961414	-0.11504394	-0.057754982	-0.15949307	0.038200963
0.2515553	0.6492797	-0.3146507	0.5071245	-0.28149897	0.382638	0.4946614	0.021447755	-0.45317197	0.54220116	0.0039950507	0.30396354	-0.19043289	-0.42250517	-0.44629702	0.4921997
0.49106395	0.4078143	-0.16261743	-0.36608833	-0.4164418	0.2951064	0.2032617	0.22354825	-0.36345863	0.19121896	0.8843782	-0.33595014	-0.49329415	0.28133464	0.07885025	0.13586651
0.0033063903	-0.21603669	-0.045100514	-0.51428354	0.050362356	-0.071141265	-0.20731394	0.025515126	0.1197335	-0.1598738	0.41000855	-0.4206454	-0.11497068	0.4127146	0.18872261	-0.18221264
-0.02814685	0.0731651	0.21343218	0.42228112	0.11885025	0.17769934	0.40976015	0.1486938	-0.19795503	0.29713526	-0.37510982	0.38716447	0.01955767	-0.45185825	-0.53195435	0.42296374
0.012720232	0.4565263	-0.26186037	0.4047572	0.029440034	0.24872711	0.39905325	0.08834569	-0.45160806	0.38901293	-0.055955317	0.31955087	-0.19567715	-0.35901597	-0.33223423	0.43764296
0.04104687	-0.123476274	-0.1494249	0.1251608	-0.15280181	-0.13628842	-0.085838184	-0.21476759	0.22544384	-0.09292153	0.021443946	-0.1353987	0.110093154	0.12805656	0.0012187305	-0.12388457
-0.8299314	0.50241715	-1.1772951	0.9049488	0.68450576	-0.71651727	-0.27220678	-0.98286444	-0.41704187	0.19144759	-0.90317595	0.5838361	1.0215813	-0.58241135	-0.122174054	0.09226352
0.36519942	-0.5427655	0.71001714	0.24566944	-0.3948931	-0.23860265	0.3174715	-0.20489386	0.41515812	-0.33991623	0.2537471	-0.19924855	-0.2450084	0.17128593	-0.1478443	-0.121836446
0.047792323	-0.419883	0.06310274	-0.28426087	-0.08677689	-0.22220252	-0.21803524	-0.19490924	0.31442824	-0.29687098	0.22813971	-0.31829047	0.040492076	0.35631528	0.16464444	-0.34307447
0.27687168	0.22404012	-0.18792589	0.5273132	-0.43102187	-0.0029742979	0.3805587	-0.338218	0.04634912	0.043140076	0.06957295	0.06727388	0.009123058	-0.026731879	-0.3022705	0.24610086
